784 130 105 26
-0.0753222 -0.0001866 -0.00492574 0.0470537 0.080058 0.0601758 -0.000673883 0.0492852 -0.0101221 -0.0794974 0.00958561 0.0214606 0.0278455 0.0793283 -0.0799467 -0.0727594 -0.000438429 -0.0327594 -0.0622299 -0.0577606 0.0588499 -0.0100412 -0.0621153 -0.0372141 0.0699699 -0.0404956 0.0086754 0.0579651 -0.0129571 -0.045418 0.0142991 0.0281306 0.0423349 0.0681364 -0.0204119 -0.0369138 0.0532041 -0.0197961 -0.0616258 -0.0496204 0.072736 0.0727614 -0.0479021 -0.04034 0.0442656 0.0329488 0.0108071 -0.0303899 0.0251149 -0.0796245 0.0449119 0.0202141 0.0719707 0.0400085 0.074365 0.0708868 0.0407169 -0.0768738 0.0319974 -0.0738621 -0.00107072 0.0747433 0.00342774 -0.0727052 0.0143845 0.0307019 0.00850469 0.0121209 -0.0633286 -0.0500062 0.071606 0.0556542 -0.00176729 -0.0121441 -0.0186822 0.0747164 0.0249617 0.0314269 0.0339996 0.0584227 0.0707081 0.0672524 0.028401 0.0086847 0.0528621 -0.0177529 0.0163588 0.0312938 -0.0153465 0.050908 -0.0772362 -0.0750004 -0.00784898 0.0363101 0.0724447 0.0292754 0.037764 0.0578431 -0.0563703 -0.00523627 0.00239902 -0.0363983 -0.064878 0.0596759 0.0189174 -0.0281791 0.00624701 -0.0409132 0.0384641 0.0602526 -0.0473265 -0.0345563 0.0591843 0.0212294 -0.00916948 0.0119084 0.0561288 0.042341 -0.00269528 0.074879 0.0188366 0.0444191 -0.0690416 -0.0144164 0.0747773 0.0284987 -0.0140214 -0.0381692 0.045295 0.0463529 
-0.0614893 -0.0602134 -0.0353349 0.0690585 -0.0262697 -0.00380895 0.0718305 0.0128991 0.00167714 -0.0201035 -0.00442331 0.0737148 -0.0389361 0.0279848 0.015164 0.051347 -0.0135343 0.0220379 0.0497383 -0.0412926 0.077034 -0.000767313 0.0734423 -0.0631375 -0.0568479 0.0721782 -0.038449 0.0177987 0.0117806 -0.00735857 -0.0796206 -0.0395232 0.0515923 0.000187889 0.0208537 0.00657465 -0.0166328 0.0359987 -0.0748649 0.0430618 0.0704162 -0.0403219 0.0297617 -0.0137986 0.0496471 -0.0519696 -0.0505155 -0.0728775 -0.0703698 -0.0114483 0.00332148 -0.0325102 0.0170258 0.0448968 0.0553284 0.0419102 -0.0154411 -0.052164 0.0348555 -0.0226749 -0.0487491 -0.0659136 -0.0748397 0.0474483 -0.0724051 -0.0215162 -0.0222235 0.013141 0.0250964 -0.0422929 -0.00266964 0.00227213 0.0700571 -0.0379534 -0.0181605 0.0527051 0.0499939 0.0412475 -0.00563847 0.0484127 0.000825182 0.0628206 -0.0737486 0.0109269 -0.0218227 -0.0252907 0.0516228 -0.0478351 0.0609679 0.0257337 -0.015352 0.00834157 -0.048389 0.0552309 -0.00581498 0.0603544 0.0286602 0.0699907 -0.0283466 -0.0106419 0.0647129 0.0216438 -0.0571736 0.0150552 -0.0422166 0.0118026 0.0271291 -0.0206981 0.0183282 -0.029972 -0.0166477 0.00309087 -0.0368494 0.044282 0.0525352 -0.0454106 0.0373384 -0.0432036 0.0498909 0.0450352 0.0180745 0.0495686 -0.0289874 0.0480695 -0.00941237 0.014141 -0.0388035 -0.0642363 -0.0169613 0.0575173 
0.0450569 0.0662498 0.0291999 0.0627035 -0.0329618 -0.0622369 0.0591703 -0.0697523 -0.00998856 0.0126122 -0.0722928 -0.0630092 -0.028887 0.041218 0.0245413 0.0545484 0.069979 0.0677543 0.0113315 0.025103 0.031672 -0.0362279 -0.065789 0.0405731 0.0708683 0.0709355 0.0457497 -0.0518651 0.0727208 0.045571 0.0651133 -0.0621169 0.0311698 0.021736 0.0234882 -0.0100755 -0.067964 0.0170809 0.00755583 0.0366914 -0.0328842 0.0290039 0.0745235 -0.000400253 -0.063461 0.0466632 0.0595437 0.0146414 -0.0255826 0.0655338 0.0333044 0.0687726 0.0667859 0.0120651 -0.0350091 0.00431986 -0.0708606 0.0534479 0.0195803 -0.0690313 -0.02827 -0.0228323 0.0160086 -0.0444547 0.0229218 0.00155258 -0.0174963 -0.00775142 0.0279521 0.0666966 0.0504447 -0.00733084 0.0774942 0.0761782 0.0168021 0.0675022 0.00327422 0.0281373 0.0219678 0.0627554 -0.0103094 -0.00726626 -0.0128533 0.0804842 0.047091 0.072117 0.013894 0.0446477 0.0242081 -0.0453408 -0.00816876 -0.0640477 -0.0521913 0.044492 0.0548078 -0.0141824 0.0272739 0.0129721 -0.0321199 3.59416e-05 0.0313559 0.0517761 -0.0743078 0.056488 0.00496455 0.0352376 -0.0800263 0.0797346 0.0576347 -0.0648591 0.0330343 0.0715267 0.0190689 0.0370628 -0.00767942 -0.0224013 -0.0409198 -0.047709 -0.00219499 0.00936218 0.0474221 -0.0353784 -0.0612293 -0.0251537 0.00457086 -0.0339031 0.000122614 0.0142687 -0.0567767 0.0787464 
0.00563446 0.0236365 0.0730544 -0.0108262 0.0308329 0.0555543 0.00637097 -0.0454145 0.00539114 0.0546094 0.059001 -0.0169685 0.0767799 -0.00568478 -0.0228788 0.0348474 -0.049197 0.0744896 -0.0103151 -0.0374335 0.0698812 0.0279284 0.0707643 0.0154657 0.00357566 0.0803419 -0.0445667 0.063951 -0.00101837 0.0516355 -0.0232171 -0.0161735 -0.0242739 0.0175237 0.00640852 -0.065828 -0.0195373 -0.0156146 -0.0524085 -0.0212501 0.00393352 -0.0380063 0.0439582 0.023249 0.0554271 -0.0768874 0.0259773 0.0617941 0.0701775 -0.0729122 -0.0179114 0.0676279 0.0445108 -0.0341231 -0.0245471 -0.0364087 0.00304826 -0.0640623 0.0533741 0.0274946 -0.0732507 -0.0274898 0.0809134 -0.0796633 0.0759391 0.00486828 -0.0415165 0.0102777 0.0121254 0.0506754 -0.0290092 0.0667955 -0.0721779 -0.0356213 0.0775883 -0.00673569 -0.0748548 0.00879902 0.0670455 0.0230201 0.00112552 -0.0404784 0.0591939 -0.00973592 -0.0394842 -0.0649983 -0.0657633 -0.00335867 0.0631671 0.0207587 -0.072074 -0.0346105 -0.0594857 0.00802703 0.0173873 0.0090992 0.0206354 -0.0334653 -0.0302997 0.0211741 0.0515221 0.0508833 -0.0196018 -0.0431884 0.0773255 -0.0487722 -0.0420891 -0.0239463 0.00468098 0.0525166 0.0321922 -0.00075608 0.0642358 0.0598062 -0.0720052 0.0769627 -0.0568955 -0.0728146 -0.0302506 0.00814441 -0.021378 0.0602093 0.0319011 0.035884 -0.0633162 0.0182908 0.010717 0.00525777 0.0221149 0.0610337 
0.00836262 0.0493593 -0.0534489 -0.0411737 0.0257701 -0.0505365 0.0550105 -0.0674577 -0.000677283 -0.064995 -0.00638494 -0.0504734 -0.00786233 -0.0277408 -0.0650786 -0.0607174 -0.0143874 0.0809999 0.0389603 0.0568297 0.0369013 -0.0142779 0.0106624 -6.9035e-06 -0.00648219 -0.0557575 -0.0367398 0.000537455 -0.0493196 -0.0188426 -0.000854039 0.0733644 -0.00647164 0.0451471 0.0217152 -0.0027194 -0.0133043 0.0309987 -0.00413962 -0.00295678 -0.0827788 -0.0791645 -0.034616 0.0780187 -0.0639866 -0.0047465 0.077605 -0.0263738 -0.0527349 -0.0427374 -0.0577337 0.0798752 -0.0313935 -0.0518524 0.0717601 0.0480046 -0.0212263 -0.0736084 0.0292661 -0.00942548 -0.0635725 0.0321198 -0.0782552 -0.0192167 0.0308499 -0.000109352 0.0656696 -0.0129411 -0.00539308 -0.0442187 0.03405 0.0446197 0.0259331 -0.0159303 0.0782685 0.0712874 0.0704342 0.00706563 0.0596101 -0.0336153 -0.0804484 -0.0577459 -0.064706 -0.067717 -0.0245113 0.036753 -0.0268203 0.0102939 -0.0615025 0.0201719 -0.00594976 0.0179579 -0.0423192 -0.0555255 0.0747956 -0.00630587 -0.0242366 -0.0353121 -0.0636687 -0.0383393 -0.0360737 -0.0234503 0.0302936 -0.0406351 -0.0432769 0.0408491 0.0620947 0.0700605 -0.022941 -0.00674226 0.0666005 -0.055973 0.0169834 0.027238 -0.0598284 0.0150507 -0.0759491 0.0465143 0.0680487 -0.0256133 -0.00841615 0.0640175 0.0524971 -0.0763964 0.0291498 -0.0222763 0.0344594 -0.0771516 -0.0636192 0.0459746 
0.0176529 -0.0261412 -0.0577966 0.0619443 0.0316172 0.0555402 0.0294187 -0.00141907 -0.0583997 0.0383017 0.000790198 -0.083271 0.0108396 -0.0420647 0.03437 0.0070609 -0.0462625 0.0288638 -0.0459175 0.0253058 -0.0320558 -0.0732682 0.0385596 0.0250791 0.0615403 0.0472311 0.0680422 0.0699525 0.0111612 0.0328047 0.00862507 -0.0647659 0.0349949 0.0109252 0.0658165 0.0708388 -0.0450234 0.0357934 -0.0546908 -0.00457098 0.0552546 -0.0386397 0.0306552 0.0746631 -0.0359649 -0.0562113 0.0020839 -0.0580008 -0.0840862 0.0548793 0.0533426 0.0789109 0.0706008 0.0670651 -0.051471 0.0433341 -0.012984 -0.00169819 -0.0201459 0.0694255 0.0262843 -0.027963 0.0268619 0.00375483 -0.065611 -0.0146017 0.0356356 -0.0180263 -0.0484073 -0.0687142 -0.0088222 -0.00609513 0.0312326 -0.0380345 -0.0516858 -0.0213409 -0.0607013 0.0096623 -0.00413867 0.0549428 -0.0708274 0.00989838 0.040596 0.0411619 -0.0813964 0.0198513 0.0230594 6.68949e-05 0.0270936 -0.0123716 -0.0560095 -0.0688605 -0.0446126 -0.0452152 0.0483156 -0.0662092 0.0210951 0.0374961 0.0187773 0.0219692 -0.0283529 -0.0559631 0.0030318 0.0381252 0.0687227 0.0163522 -0.0417587 0.00448272 0.0404241 -0.0462148 0.0506503 0.0364011 -0.0132129 0.0244622 -0.0212312 -0.0775682 -0.0171473 0.00512166 -0.0399356 -0.0528601 0.0658978 -0.0773066 0.0403207 -0.0299655 0.0616308 -0.00786967 -0.0271566 0.0510411 -0.0755824 -0.0742443 
0.0449045 -0.0369605 -0.0211458 0.0859289 -0.0525283 -0.0800731 0.0273863 -0.0118094 0.0513672 -0.0452359 0.0483957 -0.0682221 0.0379892 0.0711467 -0.0500873 -0.0681513 -0.0580061 0.0650461 0.0676918 -0.0194111 -0.028038 0.0233105 0.0240479 0.0251603 -0.0216698 0.0393186 0.0677407 0.0683687 0.0536953 0.00999651 0.0627773 -0.0543594 -0.088259 0.00668539 0.0474927 0.0139437 -0.0385073 0.040664 0.0235557 -0.0560711 -0.00894387 0.00620283 0.0139845 0.00275905 -0.00215979 -0.0147333 0.0756141 -0.0545317 0.0272329 0.00703192 -0.0299578 -0.038604 -0.0550824 -0.0539602 -0.0624575 -0.0300101 -0.0882633 -0.0434972 -0.0318968 -0.0605214 -0.0719395 0.0611958 0.00795484 0.0236453 -0.032898 0.0224953 -0.00444234 0.00659431 -0.0280739 0.0206508 -0.0748288 -0.0730841 -0.00631001 0.0603843 -0.00238878 -0.0169432 -0.0625043 -0.0593396 -0.0131742 -0.0698624 0.0468277 -0.0384193 0.0297491 0.0639447 -0.0622879 -0.00978154 -0.0875469 0.00893756 -0.0499382 -0.0278808 0.0347088 -0.0932608 -0.0311285 0.0334898 -0.0196688 -0.0646489 -0.0741429 0.0485147 0.0787945 0.0708505 0.00321301 -0.0282496 -0.00800934 0.0308135 0.0303835 -0.0871087 0.0532552 -0.0555296 -0.0511494 -0.0121728 0.0145899 0.0735285 0.0487376 0.00461632 0.00611921 0.0328039 -0.0271826 0.0774486 0.0201103 -0.0372865 0.0224904 -0.0316169 0.0568172 0.0551123 -0.0572828 0.0104948 -0.00342905 0.0604505 0.0485935 0.0696459 
0.0095949 -0.0873327 -0.00262885 -0.0181198 -0.0832234 -0.040087 -0.0305899 -0.0466748 -0.0308971 0.0222133 -0.0762731 -0.0216941 -0.0392239 0.0532765 -0.0174333 -0.0245126 0.0874409 -0.0298965 0.0563653 -0.0439346 -0.0674042 -0.0152832 -0.0757851 0.0195848 0.0664063 -0.044269 -0.0682762 0.000448224 -0.0162363 0.0889128 -0.0265134 0.0700063 0.0425084 0.00252853 -0.0571694 -0.0204242 -0.0303888 -0.0528538 0.00543762 -0.0586523 0.0698877 -0.0567681 0.0422332 0.0239637 0.0504057 -0.0290479 -0.0397123 0.0154801 0.00252639 -0.0561538 0.055695 -0.0439996 -0.0541476 -0.0410433 -0.0644878 -0.0506358 0.0299086 -0.0617013 0.00496544 0.0548292 -0.0420645 0.0668888 0.030783 0.0209986 0.0500568 -0.0757998 0.0419328 0.0575915 -0.0719674 -0.0116741 -0.0455867 0.00323778 -0.0177195 -0.0217141 -0.0466395 -0.0468821 0.0221608 -0.0625784 -0.0722482 -0.0785195 -0.000149691 -0.0107137 -0.0277226 -0.0422094 0.0252806 0.0740856 -0.0774399 0.0571418 0.0476664 -0.0471729 -0.0106904 -0.0836625 0.00309709 0.053064 0.0101238 0.0494397 -0.0245758 -0.038653 -0.0661908 0.00139259 -0.0422121 0.0459349 -0.0566164 0.0289336 0.0354337 0.0415595 0.0694198 -0.0155507 -0.0020377 0.0413681 -0.0016892 0.00702114 0.0829931 0.0391174 -0.0120146 -0.0176615 -0.0194267 0.0109591 0.032019 -0.013347 0.0541154 -0.0220553 0.0387402 -0.0834668 -0.0575507 -0.0425989 0.0580078 -0.0533458 0.0392883 -0.0265632 
0.0824237 -0.00522395 0.0656729 0.0815627 -0.0312009 -0.0085008 0.00893867 -0.0358617 -0.0330946 -0.0578925 0.00994245 -0.0125162 -8.73843e-05 -0.031355 0.063289 0.0307161 0.0199894 0.0405406 -0.0320345 -0.048723 -0.0598031 -0.0617469 0.0429116 -0.0259404 -0.0424278 -0.000461417 0.0251376 0.0456198 -0.0596566 0.050833 -0.0205651 0.0551011 -0.0827189 -0.0276799 -0.0438896 -0.0448977 -0.071852 0.0030383 0.0447261 0.0621514 -0.0598133 -0.0893079 -0.00926694 -0.0363089 0.0550964 -0.0155018 0.0224147 0.0840838 0.05095 -0.0534553 -0.0634923 0.0683731 -0.0442754 -0.00244756 -0.0128949 -0.0455612 -0.0270145 0.050126 -0.05818 0.0689005 0.0749304 -0.0663557 0.00637289 -0.0382452 -0.0697595 0.050065 0.071284 0.0509786 -0.0228187 0.0239275 0.0343639 -0.0555111 -0.0489403 -0.0150136 -0.00600542 -0.0177444 -0.0691534 -0.00599624 -0.0855618 0.077093 0.0363468 -0.0505357 0.0714021 -0.0731128 -0.0402336 -0.0757789 0.0181783 0.0218205 0.0302421 -0.0462004 0.0372577 0.0644714 0.0306751 -0.0305566 0.0475572 -0.0488236 -0.0339418 -0.046281 0.0532727 0.00343174 -0.0663871 -0.0867723 -0.027331 -0.00664261 -0.00527203 -0.112141 0.0330514 -0.0438976 -0.0676482 0.055899 -0.0105167 -0.0719005 -0.0210257 0.0125831 0.0751214 -0.0921046 -0.0496778 0.0541008 -0.0559829 -0.0245109 0.0485179 0.0186266 -0.0776592 -0.00751559 -0.0276018 0.0495826 -0.091966 0.0362286 0.0753674 0.0415238 
0.0661904 -0.0104784 0.0239371 0.0196011 -0.0453502 0.0251617 0.0266091 -0.0448846 -0.0168841 0.0326998 0.0492999 0.00414942 -0.0278783 0.0482475 0.0776472 0.0716971 0.0521738 -0.0187245 -0.0700412 -0.00649696 0.0436312 -0.0377587 0.0393207 0.0506183 0.0238904 -0.0131042 -0.0152483 -0.00273479 -0.0324034 0.018512 0.0502778 0.00413077 0.00530794 -0.033725 0.0525698 -0.0488262 0.00404617 -0.0344235 6.00001e-06 -0.0726829 0.0204021 0.0415495 0.0542058 0.0605028 -0.0829596 0.0413467 -0.0152484 0.0569703 -0.00629449 0.0306928 0.0295733 -0.0217103 -0.0311882 0.0769924 -0.0614836 -0.0180676 -0.00879522 0.00414196 -0.078238 -0.0436885 0.0288339 -0.0395349 0.00427064 0.0521398 0.0561937 0.0437971 -0.0700151 0.0394349 -0.0447544 -0.0228351 -0.0280586 0.0341497 -0.0543398 0.026379 -0.059121 0.0172936 0.027219 -0.0147105 -0.013145 0.0378396 -0.0520984 0.0602081 -0.0415942 -0.0579154 -0.0535859 -0.0346568 -0.0927577 0.0417034 -0.0607146 0.026797 0.0714158 -0.0537124 -0.0418021 0.0749424 -0.0902156 -0.01235 0.0697537 -0.0130401 0.0282593 0.00183571 -0.0757655 -0.0351052 0.00239101 -0.0682867 0.0364337 -0.0744615 -0.0396742 0.0648186 -0.00463483 0.0809923 -0.0227278 0.0598274 -0.0185412 0.0695675 0.0278608 0.00507627 -0.0536841 -0.00631384 0.0796432 0.0379562 -0.0217755 0.0182369 0.0492232 0.0105361 0.0575443 0.0683339 -0.0482226 -0.0115535 -0.07316 0.071308 
-0.0048315 0.0503577 0.0454953 0.0234471 -0.00675449 0.0574493 -0.0398258 -0.0720515 -0.077109 0.0712655 0.0596852 0.065297 -0.0346696 0.0479324 -0.0532285 -0.0043085 -0.0221819 -0.0424404 -0.0208817 0.0725321 -0.0604503 0.0386065 0.0182454 0.000298892 0.00466525 -0.0204237 -0.0624493 -0.0251422 0.0282908 0.0732676 0.0341184 0.0481047 0.0408686 -0.0161469 -0.0553372 -0.0747275 0.0381613 -0.0499255 -0.0331772 0.0701572 0.0925565 -0.0364302 0.0584784 0.0434715 -0.00164045 0.00860159 0.0720953 0.0649525 -0.0159793 0.0039103 0.0143463 0.0309471 0.0499281 -0.0637924 -0.043969 -0.0110347 0.081188 0.0536973 0.0149264 -0.0537848 0.0189699 -0.0101119 -0.000858423 -0.0124585 0.06305 0.0765722 0.00997235 0.0544093 0.0399457 0.00444462 -0.062438 0.0228703 0.0500448 -0.00892883 0.0742139 -0.0724196 -0.0590496 -0.0511604 -0.0126499 -0.00543527 -0.0701904 -0.0326484 -0.032974 0.0315495 0.0479021 0.0190035 0.0232593 0.00971524 -0.0379269 0.0151926 0.0564763 0.034888 0.02874 -0.01188 -0.0164092 -0.0704985 -0.0510228 0.00830719 0.0625711 0.0207944 -0.0263449 -0.028353 0.0753072 -0.087147 -0.0779519 -0.0497118 -0.0331874 0.0492042 -0.0202362 0.0786778 -0.0710241 -0.0741032 0.0213863 0.0326845 -0.0347261 -0.0783899 0.048506 0.0665652 0.00766457 -0.0190094 -0.0125651 0.0772892 0.0593046 -0.0391687 0.0796128 0.0754644 0.00538471 0.00283655 0.0293085 -0.0617684 
0.0113191 -0.0782465 0.0062263 -0.00944987 -0.056984 -0.0198882 -0.0668888 0.0475854 -0.0421971 0.0788625 -0.0256864 0.0646931 0.039723 0.075231 0.040508 0.00581699 0.0161545 -0.0694463 -0.056152 0.0341561 -0.04912 -0.0692995 0.0764135 -0.000340827 0.0503672 -0.000952628 0.0753036 -0.00549546 0.075817 0.0521519 -0.00619732 0.000771595 0.0196867 -0.0355376 -0.0366967 0.0466805 -0.071662 -0.0447683 0.0435 -0.0163914 0.0767311 0.00837074 0.0599678 -0.0178595 0.0555438 0.00947335 0.0228772 -0.0342066 -0.0801897 0.0122703 0.0779952 -0.0178715 0.0751302 -0.0760155 0.00906293 0.00802893 0.0557958 -0.0130771 0.067058 -0.0507886 0.0597713 0.00171084 -0.044722 0.0528727 0.0597281 -0.0568784 0.0513877 0.0357287 0.0494031 -0.0394308 -0.0488053 -0.0200408 0.0416495 0.044712 0.00974431 0.0327025 0.0434292 -0.0770745 -0.0373545 -0.0595726 -0.0125348 0.0468407 0.0472482 0.0436999 0.0774624 0.0174444 0.0442017 -0.00171126 0.0305508 0.0116729 -0.0275551 0.00691914 -0.080862 0.0239735 0.0693729 -0.0770566 -0.0350404 0.0277877 0.0288502 -0.00618842 0.0677261 0.0625016 -0.0261526 0.0208154 -0.00421391 0.0649568 -0.0505417 -0.0489792 -0.069603 0.0385669 -0.0244533 -0.0674963 0.0519998 0.0381159 -0.075006 0.0791898 -0.00642264 0.0410505 -0.0436851 -0.0488027 0.0211064 -0.0283346 0.030835 0.0160532 0.00287765 0.068045 -0.0256193 0.0261515 0.0450523 0.0428788 
-0.0619826 0.0758443 0.0449049 0.0796406 0.0421828 0.0732173 0.048469 -0.0533328 -0.052675 -0.0760477 -0.0121097 0.0650638 -0.0297078 -0.0466303 -0.0814668 -0.0430591 -0.0304211 -0.076409 -0.0769775 0.043716 -0.0341572 0.00765291 -0.00384837 -0.01953 -0.0659094 -0.00509665 -0.0332105 0.0438501 -0.0322889 0.0284545 -0.0522514 0.00581815 0.0319365 -0.0180419 -0.0779294 -0.0289258 -0.0559066 0.0182703 -0.00340606 0.0538242 0.0278352 -0.0496257 -0.0532092 -0.00272567 0.0328445 -0.0733557 -0.0594956 -0.0170929 -0.0478226 0.0617387 -0.0494856 0.0173264 0.0505032 0.0309372 -0.0307243 0.0073452 -0.0726695 0.0301432 -0.0428594 -0.0514023 -0.0778433 -0.0300442 0.0684176 0.0602668 -0.0026621 0.00294749 -0.0697161 -0.0354311 0.00556547 -0.0613169 -0.0456205 0.0484156 -0.00405649 0.0762995 -0.031064 0.0802129 0.0809756 0.00861297 -0.0108598 -0.0176475 -0.0200515 0.0771327 -0.0556855 0.0344753 -0.00421962 -0.037403 0.0465422 -0.0727429 0.0212306 0.0421101 -0.0784026 -0.0550898 0.00602059 0.044367 0.00899633 0.0241805 0.0286669 -0.0487806 -0.0511048 -0.0619115 0.0730466 -0.00543443 -0.0246312 -0.0250306 0.0490773 0.0233649 0.0433785 0.0321137 0.0487937 0.0378515 0.013654 -0.00130263 0.0403882 0.0289098 0.0561926 0.000191804 0.0510619 -0.0327591 0.0152301 0.033079 0.0491893 0.0439603 0.0176657 -0.033202 0.0447469 0.0229354 0.0248488 -0.0461678 0.0140296 0.0517684 
0.00873833 -0.0428181 0.0807429 0.0333097 0.0672736 0.0211687 0.0359685 0.0402293 -0.0136908 -0.0544422 0.0682512 -0.0325682 0.054431 0.0586331 0.00692942 0.0136048 0.0132376 -0.0538743 0.00493743 -0.0673379 0.0691426 -0.0398189 0.0129314 -0.0407687 0.0402343 -0.0331128 -0.0351644 -0.0455105 0.0161593 0.0346504 -0.00469124 -0.0615218 -0.0243478 0.0487836 -0.0338631 -0.0352296 -0.0496735 0.0799565 -0.00975035 0.0370678 -0.0203328 -0.0160419 -0.0603246 -0.0789399 0.0757858 0.0306291 -0.0447234 0.0228435 0.0787705 -0.0385999 -0.0738734 -0.0129383 0.00303324 0.0209908 -0.0757889 0.0209582 -0.0310415 -0.0516078 -0.0340043 -0.0026936 -0.0554855 -0.0497169 0.00373545 0.0147259 0.0262133 0.0360746 -0.0091576 0.0308885 0.0596166 0.0354718 -0.0511125 -0.0330268 -0.0172467 0.0485806 -0.0149554 -0.0292496 0.0668959 -0.0744135 -0.0578379 0.0766597 0.0382655 0.0102537 0.00347307 0.0513959 -0.0609349 -0.0209885 0.0603885 -0.031685 -0.0687048 -0.0448405 0.0388323 0.0165251 -0.0336096 -0.0453498 -0.0377192 0.0111563 0.059798 0.0335153 -0.0668045 -0.0718916 0.00678755 0.0702286 -0.0658253 -0.0541336 0.0772327 0.0708779 -0.0498944 0.0504053 -0.0597018 0.00242563 -0.0536015 0.0175595 0.0723444 0.0577076 0.0134698 -0.0334743 -0.0383397 -0.0572972 0.0728446 -0.0188189 -0.0730762 -0.0653223 0.0697033 0.0764894 0.0298647 -0.051024 0.033955 0.00410368 -0.0354868 -0.0691906 
0.0702865 0.0219372 0.0432856 0.0675949 0.0275726 0.0343579 0.0638262 0.0389601 -0.00275122 -0.0250393 -0.0417427 0.0868045 0.0799884 0.0499057 0.0464122 0.00842937 0.0507622 0.0753058 0.0451382 -0.00568724 0.0276674 0.0611146 0.0144511 -0.0357353 -0.0748727 0.0647853 -0.00271072 -0.0451294 -0.0644378 -0.0519303 -0.0296664 -0.0455574 -0.0504889 0.00862276 0.0683139 -0.0415039 -0.033153 -0.0472666 0.0145813 0.0378757 0.0349491 0.0790963 0.032494 -0.0184405 0.0623611 0.0489315 -0.0578837 0.00274259 -0.0609885 -0.00244699 0.0784765 0.0303461 -0.0180481 -0.0200078 -0.0467386 0.0342659 -0.0655647 -0.0527539 0.00411289 -0.0790112 0.032928 0.06338 0.0472031 0.0356593 0.0252499 -0.0388141 0.0726977 -0.0529097 0.0534493 -0.0769339 0.0484874 -0.0707318 -0.00465881 -0.0392268 0.0088324 -0.00214243 -0.0736977 -0.00162255 0.0190908 0.070248 0.0200509 0.0525264 -0.0455554 0.0129418 0.0154877 0.0772545 0.0716934 -0.0190283 -0.0578337 0.0119566 0.0463457 0.0249369 0.0185249 0.0554882 -0.0800071 -0.00037614 -0.0438896 0.0248318 0.0280358 0.0505491 0.0619371 0.0656784 -0.0735998 0.0214411 0.0276007 -0.0153533 -0.013375 0.0217541 0.0423644 -0.0407541 0.0255206 0.067448 0.00434428 -0.060382 -0.0661013 -0.00530663 0.0292149 0.0282947 0.0505154 0.0736975 -0.0186845 0.0417677 -0.0129627 -0.0379914 0.00203529 -0.068312 -0.0787811 -0.0589129 -0.0114439 0.0792518 
-0.0249999 0.0184904 -0.00795427 -0.0592344 0.0460227 -0.0590642 0.00448945 0.0596329 0.0739568 -0.0699796 0.0287318 0.0617556 0.0434559 0.0443747 0.0790083 -0.0508792 0.0492289 0.0350707 -0.0174661 -0.0520344 -0.0101475 0.0615558 0.00156211 0.0219598 -0.0415569 -0.0323362 0.0420759 0.0759335 0.0795391 0.0177622 0.078388 -0.040534 -0.00158314 -0.0214844 0.00465073 -0.0318045 -0.0513723 -0.00915555 0.0500263 -0.00831965 0.0686446 0.0536716 0.00810497 -0.0171337 -0.0312373 -0.0290594 -0.0330607 -0.048196 0.0160429 -0.0458271 -0.0787553 0.0655263 -0.0609415 0.0754328 -0.0313481 -0.019245 -0.00682266 0.0273593 0.0462012 -0.0785634 -0.0632891 -0.0363888 0.0152233 -0.0789735 -0.0287723 -0.0711014 0.0480171 -0.00285126 -0.0208782 0.0370831 -0.0232141 -0.0320011 -0.0316866 -0.0336304 0.0472629 -0.0531875 0.0351248 -0.052568 0.0324193 0.0442333 0.0756028 0.0288619 0.00941314 -0.0825471 -0.00710417 0.0350037 -0.00674091 -0.0588717 0.0388162 0.06885 -0.0517177 0.0502421 0.0443841 -0.0739429 0.0611001 -0.00934464 -0.00279093 -0.047937 -0.0458161 -0.0413708 -0.0390474 0.0354295 -0.0365774 0.016045 0.0338682 -0.0851364 0.0525691 0.0552393 0.0215223 -0.0752838 0.047452 -0.0222908 0.0287923 0.0768123 0.0133965 -0.0503066 0.0716259 0.0139619 0.0552412 -0.0636708 -0.0676154 0.0753451 -0.0212258 -0.0354888 0.018451 -0.0194953 -0.0640996 -0.0149122 -0.0445226 0.0269275 
0.0309065 0.07331 0.0872739 -0.0400529 -0.0161929 -0.0746501 -0.0640637 0.0190363 -0.0246546 -0.0480238 -0.0304688 0.0969536 -0.0458411 -0.0398429 0.0397631 -0.0413763 -0.0709945 -0.036433 -0.0293666 -0.0922658 0.013095 -0.0695326 -0.000724632 0.0044727 0.0136237 0.0162639 0.0768102 -0.0741 -0.0575643 0.0233131 0.0605257 -0.0722793 0.0100181 -0.0327133 0.0275775 -0.0604367 0.039724 -0.0340107 -0.00373459 -0.00163628 0.0787477 -0.0823112 -0.0402572 0.0683716 -0.0838666 -0.0760649 -0.0109575 0.0565962 0.0673786 0.0801353 0.0304993 0.0492344 -0.0148787 0.000112218 -0.0778537 -0.0459463 0.0688783 0.0669406 0.0388918 0.0410138 -0.0439483 -0.0195593 -0.0102427 -0.0290047 0.0205181 0.076826 -0.0713093 0.0685472 0.0413473 0.0249224 0.0605167 -0.0561133 0.0796357 0.000814794 -0.0721416 -0.0134895 -0.082941 0.0368961 -0.0594585 0.0723228 -0.0190865 0.048494 0.0411814 -0.0795183 -0.0307839 0.00117736 -0.0810564 0.0294929 0.0574295 0.0431281 -0.00372822 -0.0663331 -0.0139671 -0.0656625 -0.0594442 0.00698381 -0.0480106 0.063878 0.0145949 -0.0388944 -0.020205 -0.0327513 -0.0551713 -0.0385019 -0.0596172 0.0642814 -0.0999888 -0.0621726 0.00128788 0.0270255 0.0294236 0.0466478 -0.0181673 -0.0289592 0.0449264 0.0253753 -0.0563726 0.046566 -0.0119912 0.0457135 0.0235359 0.0463865 0.0103797 0.00661884 0.0168346 0.0610395 -0.0204196 -0.00555954 -0.0171369 -0.0369638 
-0.0144836 0.0673591 0.0404599 0.0698053 -0.0549278 -0.0796795 0.0638114 -0.0339938 -0.0350627 -0.059891 -0.00133389 -0.0252614 -0.0429389 -0.00925218 -0.0950082 -0.0276366 -0.0787331 -0.0497403 0.0169994 0.0232912 0.0257865 -0.0416004 -0.0364023 -0.0215975 -0.0253608 -0.0443103 -0.0306444 0.0273111 -0.0233671 -0.0074686 -0.0427046 0.0448352 0.0581887 -0.00141719 0.00317706 0.0434234 0.0399716 0.0458775 -0.00985794 -0.0673122 0.055253 0.0617124 -0.0639696 -0.0453207 -0.0507238 0.0387724 -0.0698941 -0.0533739 0.0465328 0.0289494 0.0390768 -0.0712122 0.0460588 -0.0433568 -0.035017 -0.0874856 0.0639037 -0.0502216 0.0487838 0.0255173 -0.00127636 -0.0465894 0.0178748 0.0558277 -0.0281136 0.0356977 -0.0509832 0.0265965 0.0611485 0.0508175 0.077016 -0.0713854 0.0763527 -0.0707885 0.0140715 -0.0602183 0.026721 0.031963 -0.0689416 -0.0823402 -0.0398488 -0.00443319 0.00218684 0.0657053 0.0349471 0.0478503 -0.013134 -0.0473784 0.00960894 0.034875 0.0592501 0.0614647 0.073873 -0.0231413 -0.0380267 -0.0812764 0.0431938 -0.046105 0.057822 0.0399273 0.0696649 0.0763631 0.0385548 -0.0301438 -0.0202284 -0.0709543 0.0187591 -0.0252363 0.0461041 0.0732717 0.0270017 0.0394606 0.0216813 -0.0492377 0.0322102 0.0757781 -0.0624414 -0.0366039 -0.017711 -0.0189404 -0.0344126 -0.0239975 0.0217557 -0.0731062 0.0196075 0.0567603 0.00776947 -0.0393109 -0.0302225 -0.0280006 
0.000929568 -0.044596 -0.0161197 0.0172959 -0.0371254 -0.0668295 0.0132556 0.0725137 -0.0207382 0.0793962 0.0210169 0.0222139 0.04509 -0.0203749 -0.00185774 0.0701323 0.0408354 0.0317268 0.0272709 0.0455929 -0.0373407 -0.0470683 0.0496196 -0.0375663 -0.00100871 0.00929751 -0.016869 -0.0363182 0.0236328 0.0185205 0.016995 -0.030348 -0.0789662 -0.00826335 0.0143318 -0.0704148 0.0400334 0.0743458 -0.0762751 0.0110305 -0.061709 -0.079688 0.00507446 0.0137381 -0.0321801 0.0815141 0.0397085 -0.00558852 -0.00304478 0.0777232 -0.0547015 -0.0554346 0.00666112 0.0430308 -0.0497916 -0.00100069 0.0292038 -0.0209751 -0.0119035 -0.0150452 0.060704 0.0527336 0.0329984 0.078283 -0.0718153 0.083946 0.0471174 0.0348983 0.0687656 -0.0773006 0.0657767 0.00773846 0.00326516 0.0742538 0.0347834 -0.0660824 0.030002 -0.00778919 -0.0781384 0.00172805 -0.00734911 -0.0577509 -0.0187643 -0.0444726 -0.079466 0.0295039 -0.0629643 -0.0097643 0.0727821 -0.0321759 0.0034104 0.0570768 0.0769702 0.000346256 -0.0370295 0.00950661 -0.0612676 0.0212232 0.031562 0.0601975 0.0330314 -0.0510236 0.0123801 0.0703035 -0.0368574 0.0198753 -0.0206051 0.0113343 0.0677949 -0.0305651 -0.0568199 0.026198 0.0345462 0.0219543 -0.0751772 0.0390738 0.0216437 -0.0599043 -0.068102 -0.0158899 -0.0576662 -0.036847 0.0608712 -0.057908 0.0217165 -0.0590897 -0.04995 -0.0748992 0.0744058 -0.0188168 
0.0399234 -0.0537572 0.0475929 0.0260243 -0.0248913 -0.0473991 0.0219516 0.0730858 0.0375266 0.0421956 -0.00628773 -0.0193887 0.0796962 0.0770081 0.0006722 -0.061938 0.0608445 0.0603603 0.0214239 0.0802995 0.0298489 -0.0378016 -0.027789 -0.0148034 -0.0124545 -0.00340524 -0.00373161 -0.00406953 -0.0376518 -0.077268 -0.0438348 0.00512608 0.0175821 0.0723347 0.0758036 -0.0595696 -0.0386819 0.0725001 0.0680651 0.0174478 0.0777383 -0.0591129 -0.0416129 0.0631958 0.0554852 -0.0189948 0.0762778 0.0690869 0.0406496 -0.00769823 -0.0166297 -0.0154232 0.064449 -0.0835038 0.0239718 0.0667023 -0.0538081 0.0680684 -0.0316371 -0.0360486 0.0381854 -0.00892622 0.0126854 -0.0467526 0.0080029 -0.0479653 -0.056323 0.0577466 0.0576257 0.0787246 0.0276196 -0.058556 0.00175801 0.0191598 -0.0531665 -0.0427365 -0.0103601 -0.0433288 -0.0773082 -0.0130171 0.0361402 -0.00347865 0.0756256 -0.0641518 -0.0752811 -0.0380658 -0.0387555 0.0511975 0.0675257 -0.0346127 0.0720067 0.0303399 -0.0414798 0.0130559 0.0107738 -0.00772537 -0.0428869 0.0327007 -0.072466 0.0394967 0.0332805 -0.0597251 -0.033275 -0.0471481 -0.0357248 0.0137908 0.0451995 -0.0704077 -0.0762691 0.0707069 -0.0480188 -0.0588523 -0.0411181 -0.0286001 -0.0506266 -0.0568121 -0.0637778 -0.0230085 -0.0610291 -0.0694329 0.0414359 0.0729578 0.0795933 0.0259814 -0.054833 -0.0540206 0.0614261 0.0244372 -0.0220826 0.0612968 
-0.072539 0.00245098 -0.0193626 -0.0125591 0.0493196 -0.0474405 0.0655681 0.0721391 -0.0306343 -0.0416323 -0.0266672 0.070361 0.0161079 0.058815 -0.00751947 -0.00451684 -0.0527361 0.0226905 -0.0110349 -0.00582367 -0.0301974 -0.0833952 -0.00544142 0.0596514 -0.0422215 0.0679856 -0.0346988 0.0535778 -0.0720736 0.0220674 -0.0522517 -0.0360592 0.0295101 -0.0442955 0.0339231 0.0604116 0.00793943 -0.0235188 0.0466373 -0.0518073 0.0392099 0.0336717 0.00138925 0.0345859 -0.0523875 0.0285382 -0.0426886 -0.0207984 0.00236938 -0.0342242 0.0127193 0.0161878 -0.0181559 0.0352945 0.0325905 0.0607269 0.0545781 -0.0173815 0.059007 -0.0565625 0.0598502 -0.0571853 0.0429364 -0.0510119 -0.0237318 0.0105595 0.0595704 -0.063236 0.00196497 -0.0143887 -0.00118936 0.0289862 -0.0681581 -0.0720448 0.0222801 -0.0159233 0.0514097 0.0332094 0.0300613 -0.0646934 0.0447265 0.0463355 0.0706245 0.0756499 0.0532242 -0.0577943 -0.0671759 0.0713444 -0.0581735 0.0425773 -0.0406779 -0.0324008 0.00830669 0.0270926 -0.0549989 -0.0585175 0.0824002 -0.0727031 -0.0134716 0.0192491 0.0703807 -0.0444326 0.0826036 -0.0907986 -0.0797516 0.0100214 0.0624722 -0.000405204 0.0481083 -0.00443911 0.0250331 0.0723416 0.0389947 -0.0641352 0.0264348 -0.0288777 0.0265933 -0.000892088 0.0471423 0.00792343 -0.0550971 -0.0761399 -0.0239745 0.0588338 0.0725741 0.0296908 -0.0801926 -0.0307456 -0.083879 0.0763056 
0.0180317 0.0401285 -0.0463166 -0.0316254 -0.0327194 -0.00708729 -0.0313493 -0.0062977 0.0480507 -0.0139433 -0.0681334 0.00142725 -0.0421421 0.00331602 0.031015 -0.0117786 0.00615011 0.0620946 0.0233656 -0.0587282 0.0437411 0.0198259 -0.0369717 0.0400781 -0.0772566 -0.0534499 -0.00920426 0.0267764 -0.00915632 -0.065043 -0.0132465 -0.0690853 -0.0523065 0.0868664 -0.00986783 0.0671657 -0.0695922 0.0553223 0.0340851 0.0354534 -0.025455 -0.0418821 -0.0532622 -0.063406 -0.000533691 0.0475487 -0.0524475 -0.00138286 0.0189939 0.0439089 -0.0242042 -0.0687021 0.0159561 -0.00345707 0.0172123 -0.0353715 0.0475854 0.0838053 0.0127277 -0.00924634 -0.0404302 0.0385304 -0.0519193 -0.000551817 0.00168073 0.0114784 0.0756919 -0.00951713 0.00182726 -0.0327112 0.0732479 0.0600432 0.0167527 0.0275995 0.0501767 0.0387256 0.0408757 0.0181594 0.0649549 -0.0666801 -0.00347198 0.0671044 -0.0058882 -0.0503929 0.0291897 -0.0622789 0.0487275 -0.0166513 -0.0228818 0.0784661 0.059331 -0.0482788 -0.0531719 0.0583722 -0.0424404 -0.0337965 0.0697684 0.0345113 -0.0570286 0.0362733 0.0776761 -0.0135061 -0.0304338 0.0748305 0.0300057 -0.010634 0.014701 0.067863 0.0845035 0.0480058 0.0145138 -0.0703669 0.0432603 -0.00988735 -0.0386894 0.00824008 0.0762632 0.0602348 0.0181569 0.0490387 0.0119334 -0.0710752 -0.0564432 -0.0312095 -0.0467987 0.0844682 0.0646006 -0.0120684 0.00371087 -0.0527791 
0.0377429 -0.0806176 0.06447 0.0214711 -0.0530507 -0.0313307 0.0282685 -0.0550792 0.0678774 -0.0411532 -0.0253496 -0.0229844 0.0655445 0.00166411 -0.059565 -0.0638527 -0.0187657 0.0239407 0.0666959 0.0049343 -0.0641312 0.065159 0.0608456 0.0675344 -0.0662815 -0.0693645 0.0452868 0.0262551 0.0215645 -0.0339412 0.0481348 0.000612074 -0.0634855 -0.0449145 0.0597171 0.0545645 -0.0761973 0.0531759 -0.0373925 0.018396 0.0552208 0.0800379 -0.0607036 -0.0127372 0.0299586 -0.07102 0.0154899 0.0209173 0.000513685 0.0462868 0.0472361 0.0100184 -0.022889 -0.0496456 0.00891666 -0.00355288 0.00693981 0.0799528 -0.0480331 0.0133394 0.0509612 -0.0109843 0.0162098 0.0743359 0.050272 0.0681918 0.00474228 -0.00957475 0.0781379 -0.0244589 -0.0626171 0.0275842 -0.0633339 -0.0457468 -0.0187144 -0.0746989 0.0675673 -0.00819285 0.0162042 0.0609753 -0.0372448 0.00421002 0.0473837 -0.01548 -0.0550938 -0.0470347 -0.0183878 0.0416014 0.0214472 -0.0737336 0.0575545 -0.0751901 -0.0605486 -0.0443859 0.0733781 -0.0427672 -0.0632495 0.019238 -0.01281 0.00118688 -0.0303657 -0.026239 -0.0236726 -0.0318922 -0.0479262 -0.00276107 -0.0302303 -0.000871646 -0.0620091 -0.0725845 -0.0760888 -0.0125271 0.0481674 -0.0646891 0.0210828 -0.0209057 0.0695542 0.0479825 -0.0508406 0.000312315 -0.0199891 0.058205 -0.00649437 0.0695584 -0.0052082 0.0456303 0.0622768 -0.00690409 -0.0216428 -0.0177707 
0.0522831 -0.0483291 -0.00568909 -0.079988 0.0369413 -0.00532383 0.0319595 -0.00295508 0.0771776 -0.0801265 -0.0276935 0.0629692 -0.0711829 0.0403886 -0.000929986 -0.0130935 -0.078518 0.0809293 -0.0314186 0.0352474 0.0625639 0.0168354 0.000684079 -0.0139664 0.0394711 -0.0235411 -0.0107058 0.0684677 0.0529347 -0.0338983 -0.00176344 0.0649477 0.0779377 -0.0399526 0.0686973 -0.0714178 -0.0702352 -0.0539319 0.0162835 0.0692543 -0.00676662 0.0139649 0.00770813 0.0696905 -0.000763526 -0.0302702 0.0543645 -0.0119899 0.0433956 0.0241042 0.00516565 -0.0371956 -0.0126477 0.0263448 -0.00275016 -0.0590173 -0.0443644 -0.0704082 0.00592773 0.0331184 0.0678385 -0.00795325 -0.00360754 0.0194858 0.0192954 -0.0472649 0.0647662 0.0698277 -0.00250442 -0.0664368 0.047131 -0.0603792 0.0320561 0.0766266 0.000828433 -0.0239105 0.0251211 0.0127877 -0.000909504 -0.0576544 -0.0126933 0.0269289 0.0336976 0.0237779 0.00492742 -0.0317269 -0.0423007 0.0462272 -0.0598729 -0.0744364 -0.0136539 -0.00435085 -0.0374005 -0.0356046 0.0429777 -0.0223319 0.0272103 0.0729307 -0.0330875 -0.0593293 -0.0565223 -0.076457 0.0267865 0.0742515 0.0326846 0.0195236 -0.0313853 -0.0201893 -0.0412677 0.0530082 -0.0487843 -0.0637423 -0.0793469 -0.0799608 -0.00135653 0.0519336 0.0378305 -0.0317559 0.0212939 -0.0404769 -0.0643968 -0.0102153 0.0231356 -0.00067909 0.0595289 0.0218957 0.057138 0.0155345 0.0393995 -0.0725083 
0.0523483 -0.0611695 -0.0655219 -0.0558981 0.019999 -0.0672297 -0.0487629 -0.0542337 -0.0320896 0.0501448 0.0455631 0.0196474 0.0366655 -0.0626398 0.0665919 0.0677352 0.00143055 0.0356244 -0.0561853 0.0584395 -0.0328881 0.0197016 0.0303343 -0.0554925 -0.0627581 -0.014265 0.0221533 0.0761104 0.00914047 0.0257845 0.0037585 -0.0195254 -0.0395336 0.0789945 0.0207353 0.0605996 -0.0186279 0.0193352 0.0231331 -0.0492675 -0.00230568 0.0121698 -0.017591 0.0220162 -0.0362694 0.0133122 0.0518488 0.0722144 -0.0607411 0.0757806 -0.0478233 -0.0387905 0.00175499 -0.0710864 -0.0560014 -0.0528767 -0.0728374 0.0744018 -0.0302736 0.0767493 0.0180268 -0.0253767 0.0659721 0.0148906 -0.0801262 -0.0459407 0.0358952 0.0380602 0.0788963 -0.00120629 0.0693887 0.0695173 0.0453832 0.0394266 -0.00222516 0.0570416 -0.0260732 -0.0169099 -0.0452821 0.0258755 -0.0569617 0.0239221 -0.0609729 0.0739282 0.00214727 -0.0016312 -0.00763558 0.0799989 0.0711336 0.0658754 0.0500278 -0.0160237 -0.0616307 0.0526379 -0.027147 -0.0760377 -0.00105805 -0.00630952 -0.0471302 -0.0427458 0.0557857 0.0255136 0.059868 0.0055512 0.025916 0.0571466 -0.0807392 -0.00922399 -0.0686069 -0.0216858 0.0739653 0.0180669 -0.043654 0.0100543 0.0776201 -0.0432076 0.0549969 0.0298668 0.0311295 -0.0308718 -0.0169775 0.0389579 -0.0574234 -0.03369 -0.0777432 -0.00911647 -0.0367491 -0.0276934 0.0429294 -0.0486532 
0.0594199 0.00428989 0.0554855 0.0186666 0.000520594 0.0303208 0.000665314 0.00282872 0.0187767 0.0256901 -0.0541452 0.0667433 -0.0389477 0.0766865 -0.0577098 0.0236708 -0.00117104 -0.0680053 0.0225831 -0.0484206 0.0573267 0.0155522 -0.00109783 0.0474503 0.0570211 -0.0226406 -0.0127372 -0.0601929 -0.0291429 0.0625015 -0.0315073 0.00146171 0.0691577 -0.0347702 0.0225412 0.00571631 -0.0770777 -0.0595785 0.0795923 0.065273 0.0316972 0.0221392 0.0334456 -0.00110206 -0.0388412 0.0313175 0.0202206 0.0764725 -0.035309 -0.0750145 -0.0049019 -0.0196638 0.0170264 -0.0467369 0.0515185 0.0329005 0.0697283 0.017634 0.00156906 -0.0692364 0.062014 0.0197393 -0.0292723 -0.032861 0.022902 -0.0143128 -0.036764 0.0330371 0.00400501 0.0340928 -0.00136439 0.0626601 -0.0544026 0.0617216 -0.000234321 0.0466736 0.0176839 0.0354439 -0.0383076 -0.0418431 -0.00373945 -0.0642314 -0.0721428 0.0471531 0.066601 0.0614132 -0.0596815 0.000920758 -0.0264914 -0.0638943 0.00789671 -0.0237162 -0.0106087 -0.00587327 0.0190152 0.0555863 0.0795571 -0.0241399 -0.0586284 -0.0424841 0.0200095 0.0190272 -0.0466975 0.0441086 0.0655459 -0.0188326 0.062006 -0.0492358 -0.0674389 0.020657 -0.0490511 0.0323459 -0.0553021 0.0522356 0.0165217 0.0279693 -0.0319648 -0.0476375 0.00586654 0.0119883 0.0197292 -0.0534699 0.0125832 0.0532247 0.0329387 0.0448065 0.0168392 -0.0417153 -0.0597654 0.052281 
-0.0498783 -0.0409461 -0.0277114 -0.0770808 -0.0200211 -0.0195823 0.0308402 -0.0160958 0.014323 0.0768696 0.048769 -0.0758841 -0.0108142 0.067881 -0.0101431 -0.0787134 0.0682512 0.0358136 -0.00800592 -0.0466426 0.00441524 0.00228063 0.0116639 0.0353758 -0.0164029 -0.0749128 -0.0421426 0.0244224 0.0191346 -0.0150219 -0.0112915 -0.0260867 -0.0362288 -0.0316469 0.0426121 -0.064627 -0.00384843 -0.0379927 0.0557649 0.0332766 -0.0428489 -0.0148582 -0.0194855 0.0520504 -0.0195013 -0.0209627 -0.0756083 -0.0421125 -0.0121582 -0.0339281 0.0244092 0.0276564 -0.069227 0.0243955 0.0163182 0.0116891 0.0506 -0.0244443 -0.0562408 0.0348443 0.0547854 0.00585011 0.0312965 -0.0790852 0.00512611 0.0670714 0.0439635 0.00591823 -0.000466965 0.0545581 -0.0446071 -0.0547143 -0.0409217 -0.00354021 0.0529003 -0.0594488 -0.019372 -0.0254705 0.0611783 0.0676641 -0.0281771 -0.0110967 -0.0340017 0.0471849 0.00131696 0.000787377 -0.0378712 -0.0714256 -0.0721251 -0.0557079 -0.0344475 -0.0561005 -0.022629 0.0767593 -0.0798467 0.0486421 -0.0371291 -0.0526891 0.0119452 0.0122757 -0.000556067 -0.0192686 0.025247 -0.0150759 0.00496942 0.0362245 -0.0787514 -0.0384489 0.0405133 0.0405813 -0.0432736 0.0114212 0.0406971 -0.053599 0.0538097 0.0650113 0.0166913 -0.0463826 0.0189949 0.0266987 0.0567354 0.0321904 -0.0469783 -0.050233 -0.018858 0.00979758 -0.0343242 -0.0798921 0.0301023 0.0187687 
-0.0444521 0.00204983 0.0405347 -0.000387177 0.0543488 -0.0287836 -0.031878 -0.0215474 -0.0658087 0.0523441 -0.0587205 0.0343971 0.0621652 0.0449817 -0.021913 0.0734012 -0.0109715 -0.0656359 -0.0343108 0.0710527 -0.0395737 -0.0563466 -0.0592995 0.0310792 0.0329665 -0.0717278 -0.00543799 -0.021485 -0.0658675 0.0353524 -0.0344264 0.00580624 -0.0127213 0.0016758 -0.0736368 0.0403591 0.0013886 0.0583827 -0.0245707 -0.00118573 -0.0316429 -0.00611269 0.00336583 -0.0154131 0.0458044 -0.037968 0.0406019 0.027459 0.0238554 0.0129254 -0.0802418 0.0609494 0.0740966 -0.0487802 -0.0168841 -0.0453022 -0.0321513 -0.0539641 -0.0427907 0.0169148 0.00052283 0.0145981 0.0396894 0.0583035 -0.0737749 -0.010651 0.0451064 -0.0022228 -0.0648052 0.028637 -0.0364927 0.0606753 -0.0330986 -0.0774356 0.00472915 -0.0740241 -0.0766985 0.0704817 0.0766664 -0.0172728 0.0467641 0.0212928 -0.0436374 0.0310832 0.0796571 -0.0699537 -0.0219021 0.0465471 0.041603 0.00714745 0.0775959 0.0253546 -0.0774936 -0.0197042 -0.0625889 -0.0558793 0.0650741 -0.0703299 -0.0595255 -0.0790247 -0.012097 0.0280206 0.0639058 0.0324973 0.00320737 0.0151568 0.0744914 0.0142475 -0.0464742 0.0263546 -0.0416252 -0.00450265 0.0457996 0.0322986 0.0702152 0.0732441 0.0306845 0.0562155 0.0248764 -0.0751765 -0.0102265 0.00188203 0.0432976 -0.0625864 -0.0761633 0.0180783 -0.0259821 -0.0719859 0.0211281 0.079715 
0.0557378 -0.0216849 0.0357356 -0.0531793 0.0611249 -0.0294802 0.0664294 -0.0299881 -0.0107923 0.0441171 -0.0571718 0.0490576 0.0362183 -0.00068938 0.0524437 0.0366917 0.0288906 0.0104463 -0.0713148 0.0783959 0.0232419 0.0443621 -0.0308337 0.0242127 -0.0675935 -0.0480625 -0.0194432 -0.0556382 0.000990629 -0.0685917 -0.0262813 -0.0208579 -0.00702651 -0.0339137 0.0761936 -0.0281309 -0.0398154 0.0368354 -0.0592104 0.0584325 -0.0270111 0.0621467 0.0777754 -0.0495326 -0.0655647 0.00514359 0.015323 -0.0618065 0.0562182 0.0574614 -0.0636352 -0.00840294 -0.0419784 -0.00616976 0.039804 -0.0744369 -0.0362515 -0.00258158 -0.0479511 -0.0142582 -0.000159167 0.080398 -0.0382886 -0.0748449 -0.0323927 -0.0438033 -0.0158478 0.0630663 -0.0242822 -0.0027032 0.0173027 -0.0676401 0.00145104 -0.0439291 -0.0508603 0.047187 0.00122362 0.0774321 0.0057055 -0.033606 -0.0415215 -0.0305605 -0.0139077 0.00217599 0.0519457 -0.0755033 0.076742 0.0416928 0.00586259 0.0386964 0.0719164 0.0349034 0.0190498 -0.0532873 0.0460818 0.0479858 0.0469051 -0.0772708 -0.0357009 -0.0590901 0.0414865 0.0711998 -0.00858212 -0.0204275 -0.0140607 -0.061872 -0.0407543 0.0241011 0.0701478 0.0785594 -0.0492457 -0.0473191 -0.0523073 0.0749275 -0.0166577 -0.0214767 -0.0394677 0.0126478 -0.0606159 -0.060496 -0.0668801 -0.00681704 -0.0140394 -0.069536 0.0684446 0.0688888 -0.0109754 0.0131178 -0.0713549 0.0507877 
0.0544529 -0.031747 0.0550457 -0.0775569 0.0129913 0.0702084 0.0410655 -0.0424459 -0.050038 0.000916141 -0.0649151 -0.0217606 0.00605637 0.0427697 -0.00516446 -0.0158094 0.0382149 0.0705007 -0.0301683 -0.059875 0.0316585 -0.00978621 0.0675992 -0.0289159 0.0531947 0.0750439 0.0352731 0.0142387 0.0184878 -0.0785306 -0.0272413 -0.0729982 -0.0224792 -0.0340901 0.0311077 -0.0800342 0.0464547 -0.0701438 -0.0576605 0.0779436 -0.0403274 0.0163079 -0.011138 -0.0482494 -0.0483437 0.004722 -0.0120411 0.0259153 0.0575034 0.0763182 0.0460052 -0.0628842 0.0129652 0.0791644 0.0144669 -0.0755221 0.00457863 0.0308368 -0.0517952 -0.0570864 0.0560071 -0.0294596 -0.06504 0.0447666 -0.0779985 -0.00946375 0.0252132 -0.000676406 -0.0743927 0.0245327 0.0590857 0.0418549 0.00713487 0.0349327 -0.0545702 0.0486674 0.0721584 0.042612 -0.00571018 0.0524165 0.00475701 0.0540113 0.0115058 -0.052222 -0.0227596 0.0732705 -0.0632424 0.0215752 -0.0799366 -0.0534012 0.079007 0.0391495 -0.0348146 0.0290191 0.0683344 -0.0382336 0.0392089 -0.0406461 -0.0626843 0.00589766 -0.0636112 -0.0451261 0.0320739 -0.0153017 -0.0651751 0.0538704 0.00188936 0.0774871 0.0340305 -0.0609295 0.0207619 0.02814 -0.0398 0.0141558 -0.0673084 0.0404312 -0.0268322 0.0617496 0.0353819 -0.05095 0.074277 0.0398214 0.070152 0.0638547 -0.0136265 0.0741813 -0.000254277 0.0320812 -0.0741881 0.0526645 
-0.0554736 -0.00940904 -0.0120391 0.0550191 -0.0274004 -0.0285085 -0.066963 -0.0231686 0.0447581 0.0210794 0.0670478 0.0283886 0.0333532 0.015389 -0.0277122 -0.0514297 -0.0304505 0.0347832 -0.0165703 -0.0395045 -0.0632342 -0.0339588 0.0449414 0.035695 0.0639751 -0.0674466 0.00432837 -0.0504985 -0.0614179 -0.057998 -0.0391248 0.0657897 0.0240467 -0.000766388 -0.0766251 -0.00637236 0.0407257 -0.0270988 0.0447905 0.0025159 -0.061386 0.0774183 0.0588443 0.0456844 -0.0782559 -0.0184724 -0.067169 -0.0549896 0.059759 0.0279434 0.0247896 0.0208421 -0.0326407 -0.00782581 -0.0689347 0.00991018 0.0702565 -0.0605948 0.0508567 -0.0761032 0.00317272 -0.0763046 0.013535 0.0248139 0.0674634 0.0195096 0.00942111 0.0407033 0.0279168 0.0136474 0.0644759 0.0341739 0.00381518 0.0423401 0.061209 0.0402088 -0.0524491 0.0270963 0.0100819 -0.0168643 0.0349117 0.074498 -0.0444813 0.0137456 0.0401605 -0.0262862 -0.0603122 0.00013021 -0.00403625 -0.0163341 -0.0621657 -0.0223972 0.022828 -0.06654 -0.0445572 -0.0071866 0.0220105 -0.0655425 -0.0566557 -0.0347691 0.0634951 -0.0774921 0.00718486 0.0403573 0.0446305 0.0484474 -0.0589487 0.0378903 -0.0308872 -0.0749807 0.0508017 -0.0623231 -0.0552531 -0.0322421 -0.0700342 0.0118959 0.0668482 -0.0442327 -0.0730636 -0.00864528 0.0282597 -0.0502574 0.0272542 0.0276767 0.00133152 0.0208075 -0.0418735 0.00830091 -0.0463577 -0.0101141 
-0.0661551 -0.0300297 -0.0301173 -0.04122 0.0419725 -0.0641776 0.0040393 0.0150852 0.0605491 -0.036188 0.0755634 -0.0355525 -0.0406653 0.0686624 0.0342873 -0.0236905 -0.0526599 -0.0455005 0.0151747 -0.0570643 -0.0425689 -0.0681133 -0.0765181 0.0461263 -0.0361267 0.035136 0.0361273 0.086073 -0.011082 -0.0517374 -0.0458851 0.072989 0.00194565 0.0624013 3.9542e-05 0.0431408 -0.00830158 0.067068 0.00518226 0.00663859 0.00609946 0.00482303 0.0793786 -0.050195 0.0571453 0.0486399 0.0678001 -0.026089 -0.0346714 -0.0781225 0.0315975 0.0300205 -0.0306084 -0.010118 -0.0699126 -0.026996 0.0213742 -0.0297162 -0.0314778 0.0568987 -0.0103464 0.0594457 0.0655243 -0.0227056 0.0530773 -0.001045 -0.0428687 0.0720389 0.0606056 0.0578338 -0.00921138 0.0723411 -0.0711524 0.0374659 -0.0751278 -0.0353249 0.0791317 0.0386475 -0.0144384 0.0750704 -0.0469413 -0.000253003 -0.035315 -0.0400612 -0.015406 -0.00280145 0.052713 0.00554249 -0.0205689 0.0622696 0.0627597 0.0247535 -0.0585054 -0.040723 -0.0687875 0.0262719 -0.0334433 0.0441277 0.0564638 -0.0244828 -0.0223902 -0.0281319 -0.00565147 0.0747266 0.070002 0.0292765 -0.0263976 0.0432481 -0.0158746 -0.0681696 -0.0754803 -0.00621346 -0.0363618 0.0655402 -0.0532107 0.0281962 0.0814844 -0.00477787 0.0379927 -0.0753225 -0.00898227 0.019686 0.0748505 -0.0527613 0.0585588 -0.0573691 0.0660066 -0.0807107 -0.0709223 0.0504352 
0.0421069 0.00590005 0.0770329 -0.0583984 -0.0531177 0.0324352 0.0705505 -0.0341268 0.0415633 0.0633583 0.0244481 -0.00331571 0.0285531 0.00908917 -0.000397372 -0.0452675 0.0444053 -0.0280335 -0.101112 -0.047489 0.0256267 -0.0261787 -0.0657423 0.0736305 -0.0472659 -0.011195 -0.0404618 -0.0345629 -0.0362492 0.0276703 -0.0579181 0.0388991 -0.0682379 0.0708383 0.074457 -0.00819136 0.0033551 -0.014435 0.0672543 0.0376521 0.0089694 -0.0292472 0.0240552 -0.0617726 -0.092183 -0.056203 0.0126393 -0.0374588 0.0301774 -0.050681 0.00392292 -0.0304885 0.0035967 0.00670719 0.00657472 -0.0619589 -0.0134114 0.0584679 -0.0126365 -0.0553733 -0.0491661 -0.0832901 -0.0113105 0.0515241 -0.0516681 -0.0409724 0.010004 -0.0306933 -0.0196432 0.00583733 0.0719906 0.0645134 0.0498166 0.0265628 -0.0516809 0.0529642 -0.00584868 -0.0413499 -0.0486335 -0.0525985 -0.0259978 0.037329 -0.0505679 -0.0826663 -0.0744095 0.0467135 -0.0231852 0.0590834 0.0198642 -0.00835856 0.0042958 -0.0449172 -0.065754 -0.0508506 0.074271 0.0413909 0.0241218 -0.0804272 0.0348036 0.0557355 0.0267318 -0.0557357 -0.0651915 -0.0248372 0.00860184 -0.0619378 0.0717095 -0.00204071 0.049985 0.047481 0.0241705 -0.0524587 0.104211 -0.0891473 0.0260641 0.0382499 0.0776937 0.0399733 -0.0237267 -0.00798761 0.0533163 -0.043316 0.00475864 -0.085328 0.045564 0.0586838 0.00272925 0.0527544 0.0818005 0.00937345 
-0.0273733 0.0125262 -0.00708192 0.0126715 -0.0141248 0.0588904 -0.0547571 0.0841222 0.0274565 -0.026679 0.0249134 -0.0380371 -0.0161771 -0.0294209 -0.0434314 -0.0709581 0.0506449 0.00743426 -0.0318692 0.0693392 0.0748637 -0.0389068 -0.0335405 0.0518366 0.027641 -0.00245913 -0.0815534 0.0893208 -0.0290997 0.0587611 -0.00360396 0.0843832 -0.0724352 0.0391952 -0.0482514 -0.0684115 -0.0559621 -0.0493953 0.0155731 -0.071857 -0.0209223 -0.0740133 -0.0334814 -0.0600918 -0.0487278 0.0176419 -0.0171933 0.036646 -0.0248712 -0.0233931 -0.0157077 -0.0703169 -0.0136723 0.0373687 0.0321527 -0.0239036 0.0390315 -0.061894 0.0892845 0.0124829 -0.0202968 0.0507159 -0.0358697 0.0554924 -0.0765925 -0.0686127 -0.0425818 -0.0313661 0.0238988 -0.0394178 -0.043196 -0.103612 -0.0475793 -0.0197783 0.0403843 0.0327192 0.0327724 -0.00701185 0.0304839 -0.0688024 0.0768234 0.0519703 -0.0815659 0.0582991 -0.00625995 0.000288364 0.00582279 0.0134441 0.0465291 0.0539782 -0.050527 -0.00983726 0.0560964 -0.0340417 0.0255973 -0.00565406 -0.0963197 0.0151499 0.041265 -0.00497868 0.048705 0.0558692 -0.00104054 0.0448985 0.0255507 -0.0188275 -0.0332084 -0.0427724 -0.0852185 -0.0214544 0.0355835 0.0565816 -0.0247399 -0.0225258 0.0536628 -0.0449956 -0.0739191 -0.0057496 -0.0097723 -0.0683508 -0.0454522 -0.0516924 -0.0425365 -0.0679198 0.00953766 0.0160666 -0.0115262 0.0204162 -0.0204704 -0.0263103 
0.0459067 -0.00936874 0.0612612 -0.0691211 0.030383 -0.0531358 -0.0466885 0.0402269 0.0027777 -0.0335946 0.0943675 0.0532066 -0.0789426 0.0581809 -0.0333486 -0.0723464 -0.0572346 -0.00627667 0.0503992 0.0498222 0.0166538 -0.0336923 0.0771502 0.0406712 -0.0473359 -0.0239161 -0.0622874 -0.0198739 -0.0788669 -0.00884037 0.0741028 -0.00551057 -0.0844691 -0.057717 -0.0676772 -0.0132463 0.0984065 0.0299928 -0.000414961 -0.040025 -0.0125952 -0.0350895 -0.0258388 0.0116624 0.0125619 0.033967 0.00318033 -0.0205653 -0.103274 0.0701161 -0.0894493 -0.0649467 -0.0230628 -0.0944525 0.076357 -0.0626302 -0.0175152 0.0403754 0.0853848 0.0117767 -0.0131833 0.00243552 0.0105631 -0.0694558 -0.0651341 -0.0655565 0.0102924 0.0234632 0.0518264 0.0166564 0.0532829 -0.129687 -0.0633112 0.0216713 -0.0954333 0.0530843 0.0422487 0.0365222 0.0201067 -0.0826773 0.0993913 0.0862361 0.0506364 -0.0302451 -0.0770295 0.0267746 0.062318 0.0561643 0.000364568 -0.0176995 0.00437455 -0.0259158 -0.0281547 -0.0938542 0.0415719 -0.0829566 0.0501863 -0.026449 -0.0170208 -0.0791799 0.0280117 -0.0189725 0.090296 -0.00726923 0.0507709 0.0141208 -0.0727962 0.055269 -0.032207 0.11104 0.0747898 -0.0105502 -0.0325547 -0.0237569 0.013538 0.0809567 0.0109934 -0.113616 0.0423524 0.0187772 0.0547814 -0.0283686 0.0583048 -0.0876775 0.0424843 0.012865 -0.118247 -0.0324308 -0.0717146 -0.099387 
-0.0289025 0.0566313 0.00239 -0.0303512 -0.0927048 -0.0805532 0.027687 0.0734887 0.0356961 -0.0828828 -0.0435673 -0.0841525 -0.0450656 -0.0737199 -0.0558967 -0.0914256 -0.0538654 -0.00936927 0.00396496 -0.0820416 -0.0778899 0.00668818 -0.0101185 0.0461288 0.000648629 0.0369052 -0.00182386 0.103447 -0.0139734 -0.10159 0.051441 0.0472312 -0.0281915 -0.0697293 -0.00879322 -0.0827085 0.0487108 0.00790893 -0.0537185 -0.0685197 -0.0864639 -0.00374362 0.00882409 0.0483668 -0.0291762 0.0516432 -0.0412037 0.125881 -0.0608021 0.0372417 -0.125572 0.00868624 0.0406344 -0.0528161 0.052558 -0.000904403 0.0338581 -0.00708674 0.0840281 -0.0324291 -0.0279463 -0.0751026 -0.0351812 -0.129186 -0.0215523 -0.0118361 0.0374548 -0.0982022 -0.000274006 -0.0579697 -0.0237815 -0.02634 -0.0573153 0.059373 -0.00546703 -0.0789241 0.0320432 0.103208 -0.0424029 -0.0311345 -0.0125282 0.0110949 -0.0470588 -0.0639526 -0.0661818 -0.0179463 -0.0234269 -0.0484774 -0.0489355 -0.00992188 -0.0558674 -0.0492357 0.0911219 -0.0521565 -0.0763159 -0.015284 0.0371832 -0.0160107 -0.0419968 0.0266672 0.0569537 -0.0210393 0.0755983 -0.0290328 -0.0585988 -0.102407 0.0202903 0.0741845 -0.070046 0.000741091 -0.0746031 -0.0186547 -0.0325386 0.0757122 -0.0289928 0.0311535 0.107906 -0.0459898 -0.0258515 0.020967 -0.0978353 0.026897 -0.0478596 -0.0183282 0.0815116 0.0526758 -0.000541797 0.0191882 -0.0699352 0.034706 
-0.0793449 -0.0535176 -0.0500013 -0.0527877 0.0106189 -0.106516 -0.00228908 -0.0111061 -0.0516746 -0.0750097 -0.0340954 0.0352409 -0.000819555 -0.0752838 0.0559327 -0.0405252 -0.0589485 0.00517141 -0.0236483 -0.00531889 -0.00865761 0.0865234 0.0718823 -0.0517755 0.0515428 -0.0417603 -0.0549726 -0.0206916 -0.0189546 0.0583926 0.0457571 -0.00772983 -0.0791338 -0.0826365 -0.116886 -0.044299 0.0130883 -0.0117303 0.0821834 0.00580197 0.0972372 0.0679862 0.0279934 -0.00461137 -0.0826294 -0.0226725 0.0532667 -0.0189367 0.0345049 -0.0139903 -0.0648002 -0.081761 -0.0815087 -0.0881455 -0.0239854 -0.134705 -0.028226 0.0203744 -0.00569342 -0.0809671 0.0434364 0.0149801 0.00640558 -0.0479585 -0.0761719 0.0451097 0.0117054 -0.0253314 0.0440467 0.0312241 -0.0111003 -0.0146673 -0.0694828 0.0114131 -0.0626274 -0.0344567 -0.094299 -0.0275037 -0.0501736 -0.0625141 -0.0145771 0.0824864 0.0748922 -0.0457695 -0.0110858 0.0208007 0.0258342 -0.107297 0.0411281 0.0906446 -0.0710523 0.015085 0.0935823 0.0874241 -0.0162306 -0.0625816 -0.0366518 0.0163048 -0.0212713 -0.105234 0.0141809 -0.0384682 0.0263544 -0.0348351 0.0335837 0.0240221 -0.00959137 -0.0599166 -0.078673 0.0201377 -0.00937557 -0.00530103 0.0356515 -0.0265846 -0.020036 -0.0493851 0.0580711 -0.106167 0.0461238 0.00336975 -0.0140699 -0.0445762 -0.0859627 -0.0608883 0.0463929 0.00296419 -0.10575 0.0669899 -0.000468777 0.0762767 
-0.0609869 -0.0173776 -0.0856065 -0.0538239 -0.00687292 -0.0117425 -0.0433585 0.0287899 -0.0672652 -0.0210785 0.0614493 -0.0650011 0.0386874 -0.0400092 0.0212726 0.0316049 -0.0363858 -0.109465 -0.0281278 -0.0637536 0.0205106 0.00555485 0.0663391 0.0676983 0.0889601 0.0595877 0.00480684 -0.0186599 -0.012003 0.0740619 -0.0175505 0.0492245 0.0225663 0.016837 0.00544514 -0.0478293 0.0726161 -0.0181307 -0.0153331 -0.0399669 0.0740406 0.0303885 -0.0134949 -0.0166667 -0.0116091 -0.0360139 -0.0141419 0.108154 0.0379899 -0.0511024 -0.0288724 -0.0157042 0.0352174 -0.0669687 -0.109391 0.0287041 -0.0353432 0.0174076 0.0666702 -0.128276 0.00979004 -0.0367036 0.0101219 -0.0332456 0.0556087 -0.0410509 0.0125819 0.0166145 -0.0121 -0.0524407 -0.0248002 -0.0529587 -0.0481958 -0.021559 -0.0402583 0.0476604 -0.0360156 -0.0143467 -0.0419597 0.0416706 0.0680445 0.0230621 0.0439967 0.0390832 0.0493566 -0.0109908 -0.0345753 0.0123488 -0.0767727 0.0789651 0.0100136 0.0127276 -0.044927 -0.00689026 -0.0264145 -0.0685632 0.0304362 0.059661 0.0558083 -0.0877933 0.0455685 -0.0289271 -0.13674 0.0590756 0.0561296 -0.00536052 -0.0762916 0.0683927 -0.00449117 -0.0211215 0.0734843 -0.053313 0.0856636 -0.0775251 -0.0605662 -0.0816761 0.0936695 0.0303129 0.0651851 0.022203 -0.0270041 -0.0688734 0.0592636 0.0543231 0.0718583 -0.0780509 0.0249555 -0.0622695 -0.022823 0.0505965 
-0.0683622 -0.0259813 -0.0387307 0.0772716 -0.018307 0.0663208 -0.0830959 -0.0176414 0.0817307 0.0605532 -0.0530571 -0.0658134 0.0530977 -0.0466614 0.0985879 -0.0976368 -0.00440993 -0.0521337 0.00377371 -0.00627321 -0.122666 0.00562665 -0.0483961 0.0202037 -0.00866717 -0.0298903 0.0300638 0.107373 -0.0899142 -0.0167191 -0.00639268 0.0136742 -0.0686729 -0.0133285 -0.0239969 -0.0645558 -0.0197782 -0.00687344 -0.074728 0.0512929 0.0299204 0.0594633 -0.0360778 -0.0432191 -0.117233 -0.0433132 0.000698206 0.113315 0.0153574 -0.0379357 0.0483883 -0.0862131 0.0138628 -0.135375 0.00555586 0.0644408 0.0430337 -0.0308918 0.0847166 -0.0641764 -0.0182921 -0.0411365 -0.0378128 0.0402158 0.0232118 0.0637921 -0.000128516 0.0598793 -0.0191082 0.00219089 -0.0384673 -0.12089 0.00709207 0.0485166 0.0263216 0.0399826 -0.0658975 0.0798863 0.0930853 -0.0234655 0.124858 0.0875902 0.016226 0.0722856 0.0861895 0.0151993 0.0508515 -0.0478216 -0.0336757 -0.0147612 0.0469136 -0.0435877 -0.019978 0.0172002 0.0209838 0.044158 0.0263767 -0.0102776 0.00802203 0.0347257 0.0208647 0.00437159 -0.0348675 -0.0237272 -0.00533727 0.0668941 0.0285531 -0.0233618 -0.137375 0.0960351 0.00260804 0.0564335 -0.0692935 -0.0552382 -0.0807579 0.00578666 0.0687991 -0.0706223 -0.0308344 0.0646667 -0.0591947 0.0185978 -0.0507582 -0.0567866 0.000843079 0.0631312 -0.0497228 -0.0154375 -0.111115 -0.0187686 
-0.00579358 0.0315768 0.0667374 -0.0152709 -0.0586934 0.0310467 -0.0600819 -0.0402435 0.00188175 0.0116939 0.0828479 -0.0464706 -0.0729434 -0.0236637 -0.0280577 -0.0300586 0.00130226 -0.00218438 -0.0149561 -0.112945 -0.0174852 0.0674474 0.0089026 0.0166206 0.065052 -0.0775733 0.0907912 0.0304485 -0.0379064 0.0627929 0.0459828 -0.0494384 -0.0312248 0.0409088 0.0292863 -0.0392176 -0.0225905 0.00427714 0.0469 -0.000112728 0.0203273 -0.0239678 0.060156 -0.0541451 -0.133846 0.0444645 -0.000757132 0.0584626 0.0248585 0.0714818 -0.0514888 -0.0119446 -0.0262348 -0.117009 -0.0275571 -0.0718514 0.0313344 0.0506652 -0.0348607 -0.0275929 -0.0278344 -0.0790851 -0.0369759 -0.0977293 -0.0571659 0.0801671 -0.0132131 -0.047439 -0.0458986 -0.00895765 0.0543915 -0.0698072 0.0412893 -0.0296476 -0.0202418 -0.058141 -0.0686065 -0.0202732 0.0909186 -0.0709649 0.0285753 0.0676167 0.0552108 0.0655505 0.0981729 0.0900808 0.0913701 -0.0130425 0.00010293 0.0172798 0.0591966 -0.00349493 0.0414975 0.0451099 -0.0378491 -0.104255 -0.00405376 0.0169956 0.0224851 0.0430434 -0.000685885 0.0422601 0.0474941 0.0700114 0.0135572 0.0961979 -0.0943628 0.0794496 -0.0151184 0.102607 -0.0172072 0.105247 0.0276851 0.0428087 -0.0112119 0.0451119 -0.00927491 0.00386465 -0.0247249 0.0841915 -0.0361107 0.00979792 0.0319467 -0.026846 0.00670054 -0.0964498 0.0119655 -0.0176155 -0.0273318 -0.0690015 
-0.0983718 0.0280888 0.0912874 0.0374703 -0.108784 -0.0822147 -0.10482 -0.000225063 0.0351635 0.00427715 -0.0623386 -0.106516 -0.0459508 0.0162141 -0.0712843 0.0193471 0.0309738 0.0336251 -0.101327 0.0675343 -0.0277352 0.0840234 0.0134604 -0.0087985 -0.0479959 -0.0373682 0.0837288 0.0637662 -0.0570133 0.0232811 -0.02621 0.0293487 0.0441357 -0.080637 -0.0776043 -0.0377178 -0.0203616 0.044239 -0.0364764 0.0159526 0.0734327 0.0459831 0.000114346 0.0417651 -0.0991563 -0.0946178 0.00167163 0.0834005 -0.127742 -0.0635228 -0.0931001 -0.0353742 0.0865878 -0.142368 0.0370528 -0.0987844 0.0260567 0.0419557 0.0535686 0.00899574 -0.019756 -0.100521 -0.0680308 0.0262736 -0.0226704 0.0769818 -0.0471584 -0.0892169 -0.0873929 -0.0673557 -0.0807568 -0.0742469 -0.0249764 -0.0266315 0.0684273 0.044664 -0.0308647 -0.0440991 0.0494056 0.00790703 0.092501 -0.000592239 0.00964916 0.0333109 0.0686322 0.0621439 -0.0413894 0.0299539 0.0804598 -0.0642429 0.0153128 -0.0283676 0.0848167 0.0258625 -0.0451809 0.0378247 -0.0235746 0.0149119 -0.0134948 -0.0654973 0.0622549 0.00274754 0.0456704 0.0998219 0.0665569 -0.0299212 -0.0145615 0.0262353 -0.0891235 0.0178527 0.0645953 0.0969477 0.0829382 -0.0647521 0.0678978 0.0379824 0.0503585 -0.019726 -0.0946587 0.0420242 -0.0462577 0.0454664 -0.0899157 -0.00185168 0.0492366 -6.79552e-05 -0.0217813 -0.0614067 0.0338495 -0.00669475 
-0.0459919 -0.0246965 0.0613821 0.0593004 -0.0722706 0.00307888 -0.00697605 -0.0540522 -0.0499834 -0.0171009 -0.0604025 -0.10045 -0.105289 -0.0223068 0.00345216 -0.0218016 -0.0549735 0.0179239 0.0113033 -0.0577116 0.00683681 0.0349659 0.117441 -0.0652529 -0.0733168 -0.00631691 0.0570367 0.0917723 -0.0696041 -0.0578834 -0.0723252 -0.0193348 0.0274826 -0.013711 -0.0141844 -0.0701125 0.0849297 0.00154037 0.0319949 0.023763 0.0817578 -0.0543692 0.0769048 0.0118049 -0.0689201 -0.0111421 -0.0461425 0.0980925 -0.0488559 0.0552742 -0.081102 -0.00192059 0.0568729 -0.0326737 -0.0312861 0.00273343 -0.0130426 0.0273872 -0.0333103 -0.00776686 0.0331675 -0.0754853 -0.123078 0.0250994 0.0157825 0.00503195 -0.102819 -0.00965161 -0.0837807 -0.0372112 0.0409258 0.00891497 -0.0410501 0.00179012 -0.0274028 -0.0281303 0.00588684 -0.0405298 0.0229789 -0.0804543 0.116909 0.0626263 0.0675102 0.061052 0.0052205 0.138835 -0.0404692 -0.0712661 0.110828 -0.0543716 0.0246423 -0.0435321 0.0464253 0.0286035 -0.0972514 0.0186239 0.087294 0.0838603 0.066797 -0.0175517 0.00033781 -0.063344 -0.0519885 -0.042767 0.0775765 0.0583645 -0.089422 0.0145666 -0.139895 0.0198965 -0.0513246 0.032742 0.128105 0.0151112 -0.0504413 -0.0392382 0.00927638 -0.0153188 -0.0665879 0.0530056 -0.0177139 0.0017241 -0.047488 -0.049236 -0.0165365 -0.00752626 -0.080756 -0.105691 0.0302267 0.0376541 
-0.0585533 -0.0205514 -0.0181571 -0.0564369 -0.124172 -0.12197 0.00476136 0.049668 0.0274896 -0.0720173 -0.0266596 0.0687446 -0.0312529 -0.0570289 0.0130059 0.0215074 -0.015513 0.0782094 -0.1358 -0.0686775 -0.0590646 0.0970394 -0.0127054 0.0018857 -0.0494797 0.0511931 0.0632625 0.164162 -0.0674564 0.0253134 -0.00481986 0.0939475 -0.0939509 -0.109418 0.0535245 -0.113706 0.107053 -0.0902018 -0.0936587 0.00731516 -0.000325867 0.0765213 -0.0525557 0.0534773 -0.116822 -0.0871682 -0.0592845 0.00637143 -0.0951836 0.0583736 0.00914585 0.0236017 0.0858148 -0.0369253 -0.0507246 -0.110598 0.0377357 0.0304454 -0.0288409 -0.0899031 -0.0461183 -0.0902323 0.00669996 -0.121274 -0.101443 0.0526174 0.0129253 -0.10203 -0.0290312 -0.0244358 -0.0261984 -0.126563 -0.0531663 -0.097655 0.00770408 0.0492736 -0.0179814 0.0223574 -0.0606297 -0.160868 0.081914 -0.00476669 -0.0524275 -0.0855123 -0.0295428 0.0461741 0.0726553 0.00379772 0.0291868 0.0591226 -0.00245987 -0.0783351 0.0497664 -0.0114374 -0.130166 -0.0823106 0.0811462 -0.0294112 0.0222986 -0.0285876 -0.0180673 0.0330445 0.0645584 0.114647 -0.00961566 0.0930018 -0.0989709 0.0183957 -0.0736204 -0.0564893 -0.0448834 0.0866536 0.108535 -0.0432387 0.00449636 -0.0334064 0.0996832 0.0865661 -0.0456987 0.0032401 -0.025492 -0.0290248 0.0030484 -0.0365344 0.0789983 -0.0772757 -0.0319404 0.0231037 -0.0861948 -0.0712627 
0.00419083 -0.034316 0.0732571 -0.0929505 -0.119431 -0.018189 -0.0453515 -0.0581741 -0.0243879 -0.000505346 -0.0349183 -0.0498257 0.0108541 -0.055764 -0.0286454 -0.0263365 0.0235431 0.0243389 -0.118496 -0.0553798 -0.080342 -0.0010309 0.0256257 -0.0405726 -0.0583383 0.0310416 0.00164913 0.159493 0.0302036 0.0549444 -0.0490733 -0.0597913 -0.0317051 -0.10716 0.00728346 0.0279614 0.0824843 0.00710146 -0.0921025 0.0234177 0.0206765 -0.045075 0.0586278 0.0650889 0.0530506 -0.0604492 -0.0137641 0.0218226 -0.182716 -0.000165799 -0.0524463 -0.116908 0.0405047 -0.00612322 0.0422232 -0.0361933 0.0387906 0.0633329 0.0622735 -0.0448476 -0.0993095 -0.0621654 -0.0397381 -0.0975484 -0.0333456 -0.0282514 -0.10627 -0.0879059 -0.00715129 -0.0400877 -0.0085942 -0.0595456 0.0574354 0.0606009 0.0722809 0.0506851 -0.0533158 -0.054277 0.0850084 -0.157242 -0.0327921 -0.0672529 -0.0089561 0.0624764 0.0506818 -0.00585537 0.0277076 -0.0599618 -0.0259956 -0.0823518 -0.0384052 -0.0498965 -0.0347676 -0.0190114 0.00970794 -0.0876659 -0.0375042 0.0742813 -0.0266496 0.0412029 0.0449545 0.0252002 -0.0536282 0.11012 0.00188414 0.0776579 -0.0787716 -0.033944 -0.105675 0.00584235 0.028595 0.11825 0.144473 -0.0484584 0.133777 0.0427281 0.0850319 -0.0195794 0.0585601 0.00542609 -0.107659 -0.0640673 0.0882421 -0.154149 0.0538448 -0.00608045 0.0455235 -0.109918 -0.0838743 0.0452598 
0.00206791 0.0476825 -0.0310321 0.0596185 -0.0141133 0.0196779 -0.119079 0.0478424 0.111787 0.0423775 -0.0118291 -0.0231276 -0.0346349 -0.0262702 0.030999 0.00163965 -0.0603135 0.0580142 -0.014337 -0.0613746 -0.101105 0.127122 -0.054804 -0.0113529 -0.0664519 -0.104282 0.0830543 0.0422369 -0.152617 -0.0580158 0.0130341 -0.0512556 -0.00693141 -0.0870345 0.0753063 -0.0501236 0.0382894 0.0812317 0.0208311 0.0599397 0.0346323 -0.0118398 0.0517754 -0.036434 0.033407 -0.0193119 -0.0709751 0.101387 -0.118031 0.0211644 -0.0287762 -0.054307 0.00851631 -0.0508706 -0.0545671 -0.068529 0.0555948 -0.030444 0.0713576 -0.0112135 -0.00150251 0.0296546 0.040512 -0.0710009 0.00505751 -0.0860135 -0.0786226 -0.0299663 0.0101178 -0.0607397 -0.0232989 -0.00490337 0.0604962 -0.0685246 -0.000295518 -0.0549099 0.0164917 -0.0769758 0.00788441 -0.126065 0.00139646 -0.0514562 0.00116912 0.187309 -0.0456244 -0.0365831 -0.0127963 -0.0286419 0.015269 -0.0103852 -0.0436951 0.0526595 0.00640185 0.0936731 -0.038224 -0.0513552 0.0569121 -0.0129039 -0.0210121 0.0560684 0.0176335 -0.0354132 -0.0200076 -0.0298572 0.0850392 -0.00917899 -0.0100973 -0.0540564 -0.04842 -0.0814538 -0.0236132 0.11121 0.180772 -0.0210077 0.143824 0.0399921 -0.0131707 0.0517998 0.0714829 0.0200436 -0.113018 -0.0180438 0.0309242 -0.0920859 0.0237934 -0.0971038 -0.0126058 -0.0418952 -0.0744103 0.0648396 
-0.00563403 -0.0682079 0.0492067 0.0486793 0.00671464 -0.10949 -0.0147327 0.0646078 0.0272 0.00342133 -0.0499856 0.105443 0.0638818 0.0177907 -0.110679 0.0817757 0.090904 -0.0437594 -0.00342582 -0.089643 -0.0988259 0.00506468 0.0348156 0.0419507 -0.075847 -0.0622037 0.0814882 0.0174427 -0.0307765 0.062136 0.0395384 0.0113455 0.0613198 0.0556545 -0.00275444 -0.0757786 0.10531 0.0635824 -0.0476452 -0.078102 -0.0209418 -0.0157827 -0.0262264 -0.105253 0.00150689 0.00333186 -0.00870641 -0.0455551 -0.0450961 -0.0148215 0.00288299 -0.0370922 -0.0490892 0.0599682 -0.026783 -0.00549854 -0.0971015 0.102307 -0.0096943 -0.0975374 0.0206463 -0.0106894 -0.0428938 -0.0578576 -0.141109 0.0263147 0.00452422 -0.0272169 0.0902922 0.0151849 0.0237887 -0.114296 -0.0639125 -0.0315174 0.136906 -0.0309215 -0.0473089 -0.113254 -0.0752149 -0.0767906 0.124062 -0.0252109 -0.0567382 0.0707889 -0.0143581 0.0561719 0.109551 0.0325036 0.0154941 0.0204966 -0.0888557 -0.00179107 0.117065 0.044398 0.0271983 0.0275301 -0.00920893 0.00644524 -0.00563788 -0.0120201 0.0461733 -1.34315e-05 -0.029047 0.0592143 -0.0225081 -0.00836622 -0.026012 -0.0163082 -0.0646048 0.0083173 0.0404256 0.0293084 0.16327 -0.0234763 0.0964931 -0.0492391 0.0300766 -0.0546714 0.00824572 0.00441821 -0.0165528 -0.101262 0.0424132 -0.115531 0.125997 -0.0313034 0.0366626 0.0274195 -0.0515374 -0.0538015 
-0.0119012 -0.0630466 -0.0266176 0.0823184 -0.0151172 0.0127417 -0.110431 0.0472373 0.0700971 0.0237828 -0.0435156 0.0438528 -0.0997152 0.047239 -0.0614289 -0.0477796 -0.0167015 0.00510885 -0.0869642 -0.0410706 -0.163337 0.0910353 -0.0674957 -0.0522495 -0.0568011 -0.0493996 0.0922018 0.101322 -0.0794624 0.0498965 0.00460547 -0.00237296 -0.0690035 -0.021833 0.0438722 -0.0336655 0.107913 0.110863 0.0580228 -0.0405668 -0.0544813 -0.0480233 0.0679626 0.00308255 -0.0142778 -0.035797 -0.146517 -0.0925086 -0.111862 0.0581995 -0.0410128 -0.0866824 0.00289524 -0.0332229 0.0192613 0.0127925 -0.00402375 0.00687496 0.0305797 -0.018499 -0.0187153 0.0159736 -0.0674453 0.013036 -0.0395019 0.0393131 -0.0706804 -0.0254753 -0.0408828 -0.0368952 -0.0207907 -0.0177178 -0.0145648 -0.0346857 0.0816102 -0.0577706 -0.0064604 -0.0428281 -0.0586432 -0.0283011 -0.0140954 0.034946 -0.0764624 0.0923819 -0.056273 0.104186 0.145227 -0.0504608 0.00405808 -0.0550195 0.0200727 -0.0212366 0.0336671 0.067964 -0.0856389 0.00222433 -0.0533512 -0.119004 -0.0466949 -0.0612515 0.00737278 -0.0184492 0.04944 0.0531977 -0.0147322 -0.00128725 -0.0402171 -0.00896588 -0.000506383 0.00441596 0.048452 -0.0653999 0.0702147 -0.0393502 0.13042 0.0631662 0.0325272 -0.0521459 -0.0404715 -0.0796201 -0.00763011 0.00528076 0.0585414 -0.0602609 0.0937053 0.0532373 0.0390838 0.0277857 -0.0485699 0.00405083 
-0.0250857 -0.0247772 -0.0411854 0.0415556 0.0901624 -0.0209492 -0.137572 0.0524988 -0.0125486 -0.0682194 0.0612772 -0.0781448 0.0315756 0.0748578 -0.00337903 0.00189704 -0.00799793 0.0470125 -0.0950806 -0.0488571 -0.0725652 -0.0184469 -0.0305022 0.00681748 0.0281489 -0.0774335 -0.00258726 0.00800456 0.00628757 0.0523901 0.00283287 -0.0438379 -0.0436697 0.00848739 -0.0149556 0.0281152 0.0200922 -0.0324563 -0.0682909 -0.0937638 -0.023963 -0.0744737 0.0062616 0.035508 -0.0757591 -0.0108137 -0.0683985 0.00797292 0.0534584 -0.0157345 -0.0488307 0.0217869 -0.0506394 0.0156627 -0.0722867 0.024441 0.0792548 -0.0583612 0.0157408 -0.00933746 -0.0230796 0.0512648 -0.0998228 0.0489777 -0.0348204 0.0232418 0.0651083 0.0234027 -0.0476812 0.00402595 0.0858188 0.0424384 -0.0783591 -0.0562751 0.079214 -0.0368257 0.0672327 0.0510154 0.00994099 0.00146596 -0.00488785 -0.0700911 0.0533611 0.0227713 0.0513328 -0.0316968 0.0107479 -0.0407492 0.0430941 0.0495123 -0.080152 -0.079901 -0.0401053 0.0393332 -0.0620895 -0.0265543 0.00112165 0.0223769 0.0608973 -0.0796863 0.0066604 -0.0148499 -0.0155554 -0.0410296 0.0942715 -0.0727198 -0.0990809 0.0325631 0.0260794 0.030624 0.0303547 -0.00873394 0.0829132 -0.0901056 0.00657595 0.0248004 0.0121573 -0.0752864 -0.0606661 0.035371 -0.0527879 0.00363291 0.0649573 0.0629866 -0.0223582 -0.017547 -0.0750219 -0.0171206 -0.061178 0.0194233 
-0.00131301 -0.00594463 0.0184735 -0.0812327 0.130219 -0.0561187 -0.11366 0.0366666 -0.0162212 -0.00123258 -0.0643856 0.0554536 -0.111579 0.0364119 -0.00298529 -0.10108 -0.0124692 -0.0515192 -0.00597717 0.0224971 -0.0930901 0.0941611 0.0091177 0.040513 0.0371545 -0.0609037 -0.0586844 -0.0245576 -0.0303206 -0.00470069 -0.0320501 -0.0897083 -0.0431304 -0.0983192 -0.0478802 -0.00829557 -0.019464 0.00899473 -0.0515861 -0.137046 -0.0800528 -0.0428248 -0.104611 0.0412534 -0.0131209 -0.0024007 -0.00812833 0.0780615 -0.0399813 0.0746064 -0.0320133 -0.0677711 0.0324312 -0.0351137 -0.0465908 0.0756177 0.0365123 -0.00800778 -0.0595107 -0.0298415 0.0235508 -0.0840338 -0.119949 -0.0736076 -0.0423975 -0.0194009 -0.0168107 -0.0960453 0.0422678 -0.0344318 0.0719071 0.0209323 -0.116972 0.0362592 0.054177 -0.0607488 0.0407333 0.0292478 -0.107056 -0.0751331 0.0631384 0.0476871 0.0624985 0.0481778 0.00700145 0.0466074 0.0902306 -0.0679904 0.0101142 -0.0303209 0.000372916 -0.0714648 -0.0400127 -0.0750604 -0.0483443 -0.00243042 0.0461454 0.0582198 -0.112515 0.0313962 0.0228654 0.0693968 -0.115664 -0.0636988 -0.0214865 -0.0220991 -0.07451 -0.0559009 -0.0299498 -0.0161848 0.0728289 0.0691699 0.0609532 -0.0630004 0.0383027 0.0985954 -0.00533109 -0.0876692 0.0700831 -0.0754888 0.0174252 -0.0405464 0.0538641 0.0935399 0.0316779 -0.0790448 -0.00135083 -0.0581109 0.00323111 0.00481378 
0.0630494 -0.0153892 0.0619496 -0.0922462 0.0412923 -0.0308782 -0.053617 -0.0606817 -0.0960297 0.0622375 -0.053366 0.077657 -0.0205333 0.103416 0.0333956 -0.0628558 -0.0256212 0.0630823 0.0265893 -0.00858191 -0.0285771 0.10238 0.0792664 -0.0702966 -0.0182647 -0.0181466 -0.00723284 0.0160142 -0.0149288 -0.00187791 -0.0172723 0.0250864 0.0495573 -0.0539074 0.0350929 0.022968 -0.0351553 -0.0142333 0.0490181 4.60232e-05 -0.0759284 -0.0179013 0.00818882 -0.00427153 0.0307617 -0.030937 -0.0853175 0.0537234 -0.0360822 0.0754401 -0.0430995 -0.0889194 -0.0906241 -0.0971008 -0.107002 0.0554771 0.102429 0.078736 -0.0280266 -0.0809821 0.0139977 0.032774 -0.0157814 0.0455778 0.092724 -0.0120961 0.0315054 -0.088832 -0.0517035 -0.0657675 -0.0864945 0.0314223 0.00364454 0.123857 -0.0600615 -0.0524611 -0.0128454 -0.0360836 -0.00826997 0.052644 0.134908 0.0252675 -0.013552 -0.0520552 -0.0142995 -0.0129762 0.10501 -0.0627861 0.0941039 0.0817041 -0.0435389 0.0847579 -0.0231377 -0.0210773 -0.0551886 0.0816819 -0.0332728 -0.0210989 0.0420506 0.0233007 0.088066 0.0829746 -0.0154239 -0.00761698 0.031362 0.0136886 -0.0156172 -0.0280168 -0.0349485 -0.0245435 0.00669173 0.0175999 -0.0749622 -0.0173393 0.0220608 0.0482391 0.0025181 -0.00224721 0.0308584 -0.0519449 0.0205438 -0.00082059 0.0994436 0.0954804 -0.0474397 -0.059556 -0.0802647 0.00822163 -0.0155643 0.043473 
-0.030624 0.0200839 0.0331655 -0.0198117 0.0485139 0.040392 -0.0304035 0.0360117 -0.00712914 0.00861379 -0.0492673 0.0151293 -0.0854769 0.103013 0.0593805 -0.00464615 -0.0712752 -0.0691431 0.0330533 0.0545083 0.0344674 -0.0214775 0.0955256 -0.0258858 0.0382142 -0.0482881 -0.0445007 -0.0622165 -0.0150002 -0.00803163 -0.0734336 -0.00614252 0.0171077 0.0747997 0.0415246 -0.126557 -0.00913288 0.00238174 -0.077824 -0.0228129 0.00487391 -0.00263227 0.0389876 0.0190384 0.0124293 -0.0333307 0.0988042 -0.0062703 0.0834627 0.02699 -0.0393748 -0.00127407 0.0346606 -0.11219 -0.069025 0.0578292 0.0815231 0.108873 0.0289482 -0.00681244 0.0640447 -0.072645 0.0893722 -0.102986 0.0689122 -0.0735003 -0.0644918 -0.0224177 0.032174 -0.0464929 -0.0447602 -0.0692935 -0.0552061 0.0354279 0.0358218 0.00670932 -0.0661955 -0.0791977 -0.0668938 -0.0512434 0.0938487 0.00878694 -0.0461635 0.042421 -0.0235718 -0.032771 -0.029728 -0.125836 -0.0696095 -0.0823797 0.0101088 0.0659352 0.0824002 -0.0598531 0.034604 0.043742 0.0362768 0.0276631 0.0584426 -0.00816552 0.0539292 0.0520335 -0.0624451 -0.0442117 -0.011008 -0.0231338 0.0396983 -0.0155618 0.107552 0.0422522 0.0882606 -0.0302456 0.00724036 -0.12744 0.0158315 0.0323077 -0.0519357 -0.0498719 0.09753 -0.0820611 0.00285561 -0.0718078 0.0448676 0.0402117 -0.0141322 -0.0387139 -0.0413155 -0.0661213 0.0400128 0.0398862 
0.0496273 0.0838217 0.0115723 0.0398329 0.0760209 0.0428945 0.0450194 -0.0266468 -0.064592 -0.0598426 0.0432659 0.0813242 0.0259006 -0.0577336 0.0697167 0.045879 -0.0566024 -0.000401418 -0.0425394 0.0471752 0.0193037 0.0290954 -0.0643802 -0.0176231 -0.0546499 -0.0490511 0.0402701 -0.0145532 -0.0323295 -0.0541231 -0.0538053 -0.037865 0.0119176 -0.0586453 -0.0790062 0.0347598 -0.057156 -0.0341553 -0.0707994 0.0332987 0.055732 0.0482364 0.0341348 0.0889261 -0.0348144 -0.016143 0.102515 -0.0623608 -0.0101158 -0.0369772 -0.0145304 0.0640083 -0.00704411 -0.00511198 -0.0472895 -0.0360751 -0.0436621 0.0365173 -0.0957811 -0.0545427 0.0127054 0.0243794 0.00212123 -0.00335344 0.0579787 -0.0283866 -0.0359601 -0.0846909 -0.0550836 -0.0565509 -0.0164314 0.0819964 -0.0855213 0.0242708 -0.0387049 -0.0327054 0.0360549 -0.0717573 -0.0179835 0.0252806 0.0983371 -0.0576289 -0.00537497 -0.0195126 -0.0201679 -0.0122692 -0.0490011 0.0119145 -0.00211386 0.0201458 0.00273354 0.0447939 0.0630648 -0.0435446 0.0245882 -0.00314781 0.0584784 0.0230806 -0.065979 -0.0345731 0.0328511 -0.0455301 -0.0425565 0.0989253 -0.031442 0.0556245 0.0146276 0.0493871 0.0681777 0.0860212 -0.0221427 -0.00204506 -0.00302207 -0.059626 0.0194121 0.0919167 0.0911766 -0.0316578 0.0639636 0.0592643 0.0389832 0.0239136 0.00981977 0.0311413 0.0117548 -0.0204543 -0.0374539 0.0332005 -0.0480902 0.0524366 
-0.0100918 0.0584488 -0.0394449 0.0241239 4.98426e-05 -0.042893 -0.018629 -0.0473263 0.0565715 0.0623013 0.0485671 0.0304668 -0.0470528 -0.0816283 -0.0629451 0.0251424 0.0328996 -0.0585179 0.00359422 -0.0272035 -0.0232055 0.0160533 0.0582383 -0.033304 -0.0175904 -0.0250769 0.0433007 -0.0640647 -0.0592511 -0.0165685 0.0153425 -0.0594788 0.0602658 0.0763424 0.0186041 0.01118 -0.0692221 -0.07018 -0.00738325 -0.00458618 0.105376 0.00604075 0.0598151 0.00136764 -0.0638128 0.0233604 0.113242 -0.0105813 0.0287595 -0.0551722 0.0150984 0.0374766 0.000448396 0.00032566 0.0537183 0.0691701 -0.0480505 0.062058 -0.0711358 0.0182033 -0.00894185 0.0123101 0.0630007 -0.0623905 0.0629708 0.0159374 0.0202308 -0.0400605 0.0542948 0.041032 0.0103105 0.0405169 -0.065346 -0.0545664 -0.0391199 -0.0120807 0.04614 0.0664 0.00734508 0.0166701 0.0150473 0.0596587 -0.0232918 -0.0333372 0.0273519 -0.0353556 0.0646489 -0.00944546 0.00150147 0.0680727 0.0604645 0.0434531 -0.0749432 -0.0544698 0.056441 0.0314896 0.027243 -0.0396532 -0.00127689 -0.00412216 0.0330611 0.0256235 0.0249867 0.00298003 -0.0253263 0.0264292 -0.0114535 -0.0211138 -0.0133314 -0.0192537 -0.0243502 -0.0493114 0.0150781 -0.0280838 -0.00435918 0.0907434 0.0132547 -0.0705672 -0.0145783 -0.0896733 0.00804661 0.0583114 -0.0979676 -0.0426815 -0.0230545 0.000912188 -0.00369296 -0.0260858 0.0678552 -0.0395008 
0.039179 0.0283473 -0.0774636 0.0740451 0.0137045 0.0635317 0.0264316 0.0129646 -0.0277439 -0.0109338 -0.0403801 0.0573156 -0.0110744 0.0436003 -0.000821436 -0.0473356 0.0179377 -0.0586435 -0.0279996 0.0418044 -0.052794 -0.0119872 0.0128384 0.0233753 0.0399312 -0.0431506 -0.052283 -0.0394064 0.0588591 -0.0132581 -0.0189539 0.0206789 0.0628259 -0.0393367 0.0567327 -0.0172867 -0.00288244 -0.0466362 0.0531715 -0.0587871 0.0944612 -0.0562544 0.00314402 -0.0284768 -0.0179649 0.0145122 0.00364175 -0.0567105 0.0159396 -0.03536 0.0378376 0.0285194 0.0189014 0.0540931 -0.0693902 0.00332726 -0.0642666 -0.0311903 -0.0593429 -0.0352458 -0.0790927 0.0406529 -0.0225611 0.0671608 -0.0267315 0.0333396 0.042093 0.0693403 -0.0558008 -0.0271617 0.0659955 0.00366326 0.00757232 -0.0486392 -0.0237647 -0.00669818 -0.0520901 0.0445402 -0.00223485 0.0621656 0.0576552 0.0660464 -0.084099 -0.0534968 -0.0377037 0.0721411 0.0481095 -0.0558032 0.030104 0.0673105 -0.00759391 -0.00253295 0.0349388 -0.0278371 -0.075455 0.0277209 -0.0487665 -0.0639997 0.0813271 -0.0452369 -0.0470009 0.0308967 -0.0244962 0.0333686 -0.00247425 -0.0805677 -0.0675472 -0.0665752 -0.0823056 0.00692162 -0.061954 -0.0134237 0.056971 -0.0636638 -0.00224034 0.027176 -0.0659806 -0.0182924 -0.046146 -0.029069 -0.108516 0.0293375 -0.00829197 -0.031979 -0.0665778 0.0691039 0.0668544 0.0265024 0.0337102 0.0381352 
0.0101382 -0.00559251 -0.0413916 0.0273125 0.0463647 -0.0767313 0.0552153 -0.0490766 0.0602709 -0.0550316 -0.0241042 0.0218954 0.0422747 0.000548461 0.0400715 0.0520034 0.0248462 0.0423417 0.025363 -0.0552881 -0.076689 -0.00844858 0.0217386 -0.0723079 -0.0181714 -0.0121024 -0.0795333 0.0376041 -0.0566839 -0.0504916 0.00403452 -0.0491799 -0.0276362 -0.0781839 0.00444877 -0.0495685 -0.0199695 -0.0104517 -0.0184963 0.0408419 -0.0283042 -0.0476842 -0.0369731 -0.00644705 0.0150425 -0.0449546 -0.0567535 0.0690771 -0.0575254 0.0607202 -0.0484616 -0.0135672 -0.0425133 -0.00629043 -0.00910325 0.0634736 0.0271945 0.0170896 -0.0712557 -0.0214156 -0.013567 -0.061025 0.0313886 0.00345749 -0.0180385 -0.0749262 0.0299997 0.0726804 -0.075719 -0.0280722 0.0103373 -0.0732427 -0.0167174 -0.0715621 0.0229826 0.0652346 -0.0762637 0.00568077 0.0716661 -0.0746068 0.0287918 7.33986e-05 -0.00146135 -0.00110677 -0.0498911 -0.010492 -0.0537847 0.0360824 0.0371568 0.0649178 -0.0541688 -0.0406503 0.0663278 0.0486104 0.0603524 -0.0682917 -0.0317608 0.0485179 -0.000212469 -0.000135091 0.0723666 0.00985297 0.015246 -0.0248685 -0.0787339 -0.0265869 -0.00689469 -0.0329565 0.0163863 0.00778894 -0.0119528 -0.0408504 0.0450832 0.0721834 -0.0267544 -0.00205754 0.0197264 0.0447432 -0.0676456 0.0420469 -0.0205265 0.0728546 -0.000666449 -0.0178555 -0.000991954 -0.0803616 0.067632 -0.016978 -0.00272811 -0.0620119 
0.0137342 0.0772878 0.051632 -0.0457268 0.065596 -0.0362657 -0.0192627 -0.0209766 0.0062023 0.0166319 -0.0451245 0.00762988 -0.0789621 -0.0235767 -0.0103588 -0.0296416 0.00588302 0.00370588 -0.0308949 -0.0216069 0.0688296 -0.076875 0.00594338 0.048739 0.037994 -0.0131371 0.0135347 0.0646382 -0.0739691 -0.0807279 -0.0670641 -0.0595525 0.038975 -0.0689604 -0.0639461 -0.0438481 -0.018171 -0.0692527 -0.00131266 0.0468614 0.0296305 -0.00133775 -0.0243074 0.056418 0.00831418 0.0143424 -0.0625533 0.00468518 -0.0669604 -0.0728208 -0.0461506 0.0323065 0.0783392 -0.0185184 0.00658048 -0.0229276 -0.00590336 0.0561613 -0.0221506 -0.0260876 -0.0631311 0.0369948 -0.0220491 -0.0680725 -0.055662 -0.000642415 0.0303939 0.00804078 0.0427456 0.0116575 0.0106628 0.00742486 0.0331149 0.0343191 -0.0444757 -0.0339036 -0.0450802 -0.0290831 -0.00907977 0.0652383 -0.0410182 -0.0110573 0.0500718 0.06352 0.0110051 -0.0219259 -0.0088381 0.0615511 0.0138937 0.074074 -0.0780871 -0.0645653 -0.046935 0.0146518 0.0444777 0.0407493 -0.0632997 -0.0558011 0.0369324 -0.064736 -0.062074 -0.0763558 0.00645444 0.0297034 0.0670375 -0.0729145 -0.0113504 -0.0555547 -0.0193099 -0.0488007 -0.00749992 0.0214862 -0.0345874 -0.0716017 -0.0478288 0.05967 -0.0140852 0.0759177 -0.0352094 0.0127863 0.0286283 -0.0519952 0.025372 0.062021 -0.0783703 -0.0634383 -0.00430653 -0.0702521 0.0663572 -0.0100692 
-0.022308 0.034516 -0.022298 -0.010678 0.0245233 0.0359332 0.0148165 -0.0245729 0.0444798 -0.0320311 0.0414912 -0.0573602 -0.0734049 -0.0438344 0.0316513 -0.063215 -0.0242934 -5.76675e-05 0.00694148 -0.0202395 0.0319427 0.0137917 -0.0558245 0.0050761 -0.0100496 0.0686803 0.0155018 0.00760011 0.0757596 0.0633228 0.0538807 0.0612434 -0.000952944 -0.0584292 0.0596059 0.0190146 -0.0261446 0.0342042 -0.00766522 0.0216925 -0.0510322 0.0479461 0.0563291 0.0097164 -0.0279267 -0.0465887 -0.0307196 -0.0507244 0.0538177 -0.0232367 0.0595428 -0.059195 -0.0330416 0.0422942 0.0085108 0.00379579 -0.0270874 -0.0664188 0.0471129 0.0189939 -0.0515413 0.0594202 -0.0325406 0.00999714 -0.0236663 0.0190406 0.00339401 0.00248303 -0.0190083 0.0804618 0.0128837 0.0406705 -0.0781172 0.0304019 0.03747 -0.0329762 0.00662461 0.00332659 -0.0282832 -0.0631242 -0.0532896 -0.0303589 -0.0710857 0.0262001 0.00610365 -0.0647458 0.0320109 -0.0576614 0.0482098 -0.0549353 -0.0364157 0.0506518 0.0568494 0.0626484 -0.0329944 -0.0317277 0.0490938 0.0307494 0.0744877 0.0148736 -0.0295163 0.0031343 -0.0148736 0.0718967 -0.0474816 0.0075729 0.0755366 0.00954118 0.0509017 0.057021 0.0154059 -0.0241697 0.0190779 -0.0266447 -0.0247915 0.0209152 0.0524768 -0.0413795 0.0252538 0.0264932 -0.0483583 0.0548923 0.00406481 0.0745475 0.020414 -0.000228345 -0.0600137 0.0643403 -0.0226115 0.0739364 
0.0513062 -0.0203318 0.0676025 0.0534259 0.0334312 -0.0353031 0.00778266 -0.0307978 0.0483718 -0.0550057 -0.0642147 0.0692429 0.0704923 -0.0167024 0.016995 0.0403947 -0.0436833 0.0674597 0.0127835 0.0734314 -0.0507549 0.0325131 -0.0200328 -0.0608165 0.000620066 0.0503285 -0.00721308 -0.0566832 -0.00581841 -0.0449705 0.0592309 0.0645796 -0.0312058 -0.0764456 -0.0651116 -0.0171345 0.025757 -0.0746241 -0.0065043 -0.038678 0.070672 0.0263043 0.0300928 -0.0445709 0.0659782 0.0682917 -0.0340548 0.0123542 -0.0366433 -0.0349297 -0.0274796 -0.0505729 -0.0318733 -0.019776 -0.0102912 0.0230172 0.00232571 -0.0373152 0.0307593 -0.00566322 0.00981521 0.0554352 0.0449027 0.0530483 -0.0189329 -0.0300706 -0.0144723 -0.0266496 0.0144989 0.0164532 -0.013304 -0.0646577 0.0677592 -0.00674724 0.0814895 0.0208607 0.0782332 0.0287617 0.0513671 0.0496752 0.0149198 -0.0422295 0.0441522 0.074559 -0.0114906 0.0292283 -0.0665411 0.0130977 -0.0781714 -0.0181915 -0.0619425 0.0353797 0.016575 -0.0439438 0.0666681 0.0211449 0.0772321 0.0368605 0.017376 -0.0557435 0.037416 0.0441234 0.0169222 0.0167057 -0.0158931 -0.047576 -0.00855594 -0.0066654 0.0417812 -0.00288164 0.0730827 0.0637337 -0.0750873 -0.0589802 -0.0419147 -0.00439356 -0.0663585 0.0575134 -0.0586936 -0.0379597 -0.00338475 0.00608038 -0.0421575 0.0780845 -0.0195991 0.0207226 -0.00887706 -0.0427846 0.00592242 -0.0081301 
-0.00306278 -0.0483336 0.00995035 0.0402731 0.0364092 -0.0276343 -0.0812749 -0.00881159 0.0564857 -0.0395308 -0.0078141 0.0594062 -0.0298589 -0.0321883 0.0153269 0.0726757 -0.0109691 -0.0451617 0.0462739 0.00725713 0.0331339 -0.0192053 -0.0251749 -0.0522055 -0.0833295 0.0571777 -0.0368676 0.0161422 -0.0480025 -0.00260294 0.047652 0.0501029 0.0186596 0.0126222 0.0352008 0.0412466 -0.0105316 -0.00718033 -0.0460967 -0.0375386 -0.0769558 -0.0566615 -0.00361537 0.0841811 0.0530849 0.0218877 0.095415 0.0797555 0.0137368 -0.103579 -0.0672144 -0.0758591 0.0615693 -0.0264373 -0.036159 -0.0659201 0.0250592 0.0304572 0.0442202 0.062988 -0.0780934 -0.086225 -0.00719348 -0.0355186 0.0479656 0.109746 0.0510059 -0.020296 -0.0550268 0.0664666 0.0155006 -0.0618032 -0.0437357 0.0814494 0.0847988 0.0460756 -0.0644046 0.0417334 -0.00119723 0.0164537 0.0159557 -0.0734893 0.00147277 0.0742513 0.111182 -0.0574661 -0.0367421 0.00723112 0.0378117 -0.0326053 0.059869 -0.0605199 0.0624883 -0.0255385 0.0402812 0.0489285 -0.0211047 0.0125712 0.0570728 0.00805855 -0.000860869 0.0312863 0.0328762 -0.0613622 -0.0419488 0.052731 0.0589624 -0.0581545 -0.0760508 0.0345897 0.0838427 -0.0326035 -0.0169269 -0.0325695 -0.0512539 0.108265 -0.0274407 -0.0764389 -0.0163432 -0.0090297 0.0549956 -0.0161922 -0.0216849 -0.00589618 0.0861957 0.0179354 -0.00345592 -0.0188351 -0.0614629 -0.0398067 
-0.142846 0.088211 -0.0898341 -0.0029069 0.0679223 0.0166105 -0.0236389 0.0385471 -0.0633058 0.0670415 -0.00890631 -0.00528333 -0.0103706 0.00746286 0.0949299 -0.107606 -0.0380491 0.100764 -0.0398216 -0.0709785 -0.0192696 0.0311672 0.0616099 -0.0248793 0.0659398 0.0459895 0.0863034 0.00148749 -0.0857846 -0.0675487 0.016628 -0.00227781 0.0193818 0.0957579 -0.0797204 0.0549403 0.0546086 0.00984525 0.0334438 -0.060388 -0.157384 0.0505112 -0.0431758 0.0133773 0.0013953 0.108902 0.0783983 0.005244 0.0448314 -0.116668 -0.0736006 -0.119978 -0.0353214 0.0174774 0.027181 0.0534662 0.0610058 0.0446697 -0.0459417 0.0122555 0.00818341 -0.079662 -0.0702758 0.0520547 -0.00575896 0.0226499 0.0294556 -0.0614915 -0.0419041 0.119804 0.025735 0.0401469 0.034692 0.0908169 -0.0390765 0.000656805 -0.0325047 -0.0126852 0.0431396 -0.000771081 0.0679612 -0.0511288 -0.0606416 -0.0412658 0.0905905 -0.0804196 0.0235615 -0.149135 -0.0519195 0.0421634 -0.0463621 -0.108742 0.0104962 -0.021394 0.0158839 -0.117904 0.108291 -0.0447679 -0.037403 0.00582374 0.0331725 -0.121115 0.0442416 -0.00206028 0.0776978 -0.0220053 0.00885017 -0.0828416 -0.0892218 0.121891 -0.00696405 0.0213844 8.25391e-05 -0.109031 -0.0728915 0.0797423 -0.0217106 -0.10778 -0.0139149 0.0165968 0.00166532 -0.140159 -0.0195497 0.0483703 -0.00195683 -0.0455056 -0.0822077 -0.0176473 -0.0233762 -0.0595163 
-0.0362343 -0.045382 0.0147532 -0.0609445 -0.0509587 0.068524 -0.0317065 0.137713 0.016094 0.101625 0.0197576 0.0536383 0.0441198 -0.0734051 0.129829 -0.128594 -0.0946284 0.037953 -0.0601598 -0.0543302 -0.0860431 0.188708 0.0277944 0.154472 0.0596089 -0.0705552 -0.0128683 0.0594537 -0.0648352 -0.0153688 0.175487 0.185265 -0.0911439 0.109702 -0.0854189 -0.0990218 0.142683 0.0449225 -0.026235 0.0877875 -0.126127 -0.0786307 0.0161061 -0.102984 -0.0493232 0.0370892 0.142989 0.0356741 -0.113647 -0.155212 -0.0964146 -0.161974 0.0173975 -0.0610474 0.0818968 0.0452737 -0.0259178 0.0119472 0.056586 -0.0485247 -0.136621 0.00406443 -0.211887 0.041205 -0.149815 0.0801547 -0.0762174 -0.0112004 -0.0570028 0.171512 -0.0698973 -0.042515 0.00214742 0.0222796 0.0115847 0.00511406 0.128984 -0.122174 -0.0524683 -0.0775486 0.140723 -0.165129 0.0031291 -0.16144 0.103805 0.0123807 -0.0753741 -0.0196278 0.000620636 0.0414284 -0.115633 -0.0324144 -0.0468506 0.0537519 -0.111137 -0.171472 0.0379114 0.0596281 -0.0612426 0.00100974 -0.0498789 -0.0244269 -0.0753027 0.120029 -0.0400754 -0.0131821 -0.0417229 -0.0509792 -0.08803 0.115162 -0.0538113 -0.097171 0.125923 -0.144282 0.149034 0.0140744 -0.0413582 -0.0569379 0.11757 -0.121344 -0.0681657 -0.0568609 -0.215686 -0.00593984 0.109495 -0.0514112 -0.163142 -0.0163022 -0.127782 0.0486602 
-0.11296 0.00184025 0.00575775 0.0680389 -0.126662 0.0961367 -0.0559106 0.168635 -0.0149639 0.11177 0.0508358 0.0464767 0.140622 -0.0241226 0.104865 -0.174968 -0.103173 0.0624284 -0.152816 -0.101552 -0.00121652 0.12474 -0.0611686 -0.0767301 0.13383 0.127774 0.0513313 0.243119 -0.122283 0.145631 0.126255 0.0868501 0.0799879 0.0768273 -0.0486978 -0.149957 0.104205 -0.042748 -0.041446 0.0763376 0.0463962 -0.177259 -0.1417 -0.029972 0.0780321 0.0192457 0.0990807 0.067225 -0.159654 -0.0644701 0.0412763 0.0157859 -0.0378416 -0.169436 0.0350056 -0.0692988 -0.0986731 0.178455 -0.0322212 -0.0370694 -0.147932 -0.1802 -0.267736 -0.0425573 -0.125687 0.018119 0.0291907 0.0743497 -0.108646 0.0938533 -0.06399 -0.127618 -0.19623 0.0040629 0.0313748 -0.0128998 0.146393 -0.0743834 -0.0234169 -0.0331331 0.0569808 -0.0335526 0.0202477 -0.150218 -0.109251 0.080248 -0.16705 -0.166429 0.0955767 0.0243593 -0.0649838 0.0376764 0.0124608 -0.00670255 -0.164652 -0.140793 0.0392766 -0.00127126 -0.232077 -0.0720324 -0.0818529 -0.0104836 -0.0414689 -0.0784454 0.0486034 -0.0846785 0.0226236 0.0147579 -0.0565596 0.193945 0.131429 -0.0970128 0.184546 -0.139776 0.0180916 -0.0606115 0.0490352 -0.0610246 0.0332089 -0.146257 -0.06232 0.0522535 -0.104325 0.0545671 0.00612359 0.0412835 -0.10666 -0.161016 -0.0436182 0.148431 
-0.0780446 0.199946 0.186034 0.0378587 0.0137166 -0.0380268 -0.14971 0.131125 0.0424029 -0.0610216 -0.0313085 -0.0405283 -0.042613 -0.142417 0.0739861 -0.358804 -0.162183 0.169836 -0.0970792 -0.204192 0.0628331 0.199794 0.0179233 -0.0945161 0.124651 0.156653 -0.0248617 0.257279 -0.123716 0.105725 0.182319 0.163769 0.102534 -0.0581692 -0.129837 -0.0218659 -0.00345354 -0.133698 -0.0688239 -0.0849369 -0.0288025 -0.0534612 -0.133648 -0.0920976 0.0305638 0.172247 0.153384 0.17972 -0.0587508 -0.139362 0.023296 -0.0580559 -0.168893 -0.0903033 -0.141298 -0.00350361 -0.112242 0.176964 0.0188346 -0.098555 -0.163413 -0.178411 -0.086818 -0.273186 -0.0458698 0.107117 -0.0640321 -0.0383413 -0.144559 0.0449217 -0.0192641 -0.0380961 -0.139451 0.0403157 0.00406553 0.0106639 2.17572e-06 0.0708594 0.017953 -0.0502876 0.0584381 -0.046418 -0.0844715 -0.0273201 -0.0478367 0.150253 -0.0584935 -0.156637 0.175993 0.00176823 0.0985439 -0.0170376 -0.0450541 0.0163038 -0.188506 -0.0335241 -0.0699822 0.101433 -0.240273 -0.248794 0.0302522 0.0531051 -0.120844 -0.0368051 0.107308 -0.0633965 -0.208264 0.144656 -0.125879 0.307328 0.126626 -0.132524 -0.0488282 -0.00434079 -0.00987183 0.0274463 0.112132 -0.256803 0.0210914 -0.159154 -0.0940725 -0.0470106 -0.174094 -0.00225399 0.0918525 -0.0119042 -0.268629 -0.00425781 -0.103871 0.180902 
-0.0671054 0.091735 0.0500564 0.136529 -0.112391 -0.0689442 -0.253649 0.126118 0.11555 -0.0697412 -0.0259528 -0.0280585 -0.0392684 -0.070666 0.0616057 -0.343318 -0.225556 0.17113 -0.179003 -0.221512 -0.238523 0.18152 0.0545795 0.042634 0.0144282 -0.0481554 0.0732415 0.0401695 0.00637827 -0.0467387 0.0929061 0.0278256 -0.0113211 -0.118245 -0.0335474 0.00693678 -0.0104379 -0.0416817 -0.0524633 -0.0718752 0.0874609 0.00326573 -0.113974 0.0922513 -0.111365 0.0915494 0.123431 0.061124 -0.0451022 -0.0906765 0.0590944 -0.0405407 -0.137927 -0.17168 -0.167502 -0.170723 -0.0901107 0.142608 0.156768 -0.10059 -0.0913807 -0.10132 -0.128321 -0.158381 -0.0962509 0.0395964 -0.142681 0.125661 -0.177464 -0.0628706 0.0577865 -0.120227 -0.128049 -0.0234935 0.0718642 -0.113673 -0.043859 0.0405801 -0.0629769 -0.021286 0.0678137 -0.0638873 -0.0706563 0.0972773 -0.055747 0.255249 0.231042 -0.144228 0.0880646 0.0635347 0.109214 -0.135752 0.0295381 0.0509436 -0.043547 -0.0920203 -0.0804035 0.151186 -0.268123 -0.163548 0.0782465 0.0723734 -0.123534 0.0181373 0.120606 -0.0815875 -0.17763 0.162331 -0.189645 0.416475 0.137509 -0.0510207 -0.029429 0.000621953 -0.270224 0.03897 0.152124 -0.356587 -0.0399125 -0.0114043 -0.246657 -0.208848 -0.137092 0.0172694 0.201153 -0.0898717 -0.167946 -0.106255 -0.13865 0.18271 
-0.14151 -0.0186426 -0.128165 -0.00199015 -0.147159 -0.0741289 -0.216432 0.0903574 0.00165701 -0.143012 0.0744483 -0.026841 0.037597 -0.109161 0.154722 -0.410223 -0.227085 0.115917 -0.341193 -0.275472 -0.131941 0.350761 -0.00846728 -0.0581989 0.0565242 -0.0939833 0.136472 0.101122 -0.106874 -0.0353779 0.232434 -0.00672652 -0.0651175 -0.169345 -0.20611 0.0388334 -0.0712048 -0.270413 -0.00672032 -0.0620589 0.182723 0.239164 -0.166986 -0.00481044 -0.0188889 -0.13892 0.00804681 0.0606146 0.0478941 -0.182118 -0.0534334 0.0203256 -0.180143 -0.397955 -0.124346 -0.221778 -0.0433181 0.0844303 0.0927458 -0.134184 -0.0283083 -0.123165 -0.18165 -0.365855 -0.161245 0.0578353 -0.175764 0.0985493 -0.192548 -0.107423 -0.192687 -0.347494 -0.179387 -0.0246267 -0.0271319 -0.153731 -0.0774566 0.0624844 0.0476507 0.0154159 0.259476 -0.110463 -0.0641117 0.0960191 -0.055568 0.191933 0.0677368 -0.133853 0.17548 -0.0217128 0.0689492 -0.124892 -0.0794853 -0.0440391 0.071634 -0.109426 0.0980169 0.0561134 -0.0972335 -0.210719 0.0608682 -0.118016 -0.102733 0.104166 0.0858065 0.18057 -0.323879 0.223062 -0.00134828 0.411255 0.151834 0.147402 0.0268726 -0.0826513 -0.290812 -0.0655002 0.188325 -0.42764 0.0994408 -0.122229 -0.224152 -0.176567 -0.107338 -0.0627579 0.235486 -0.160965 -0.261738 0.0123675 -0.0497529 0.155844 
-0.0550875 0.0730804 -0.0681267 -0.0982226 -0.143446 0.0843587 -0.308728 -0.0351033 -0.059124 -0.134854 0.174647 -0.0685693 -0.0263176 -0.158176 0.142682 -0.221299 -0.364186 0.0537418 -0.196429 -0.23812 -0.0681279 0.399354 0.00329491 0.019059 0.14966 -0.0549832 0.0682072 0.0838821 -0.0958614 -0.122233 0.157701 0.106414 -0.0603453 -0.139032 -0.189912 -0.0071452 -0.104935 -0.460952 0.149971 0.0448141 0.110939 0.206706 -0.0796204 0.015645 -0.176627 -0.220333 0.11438 -0.0674971 0.121971 -0.142772 0.0915224 -0.0144478 -0.139054 -0.424232 -0.270338 -0.270367 -0.163469 0.184817 0.0592541 -0.281093 -0.0165258 -0.0327568 -0.232447 -0.340679 -0.0848546 0.10172 -0.300482 -0.0879683 -0.206322 -0.138377 -0.180021 -0.442983 -0.213593 -0.142143 -0.144005 -0.249186 -0.314769 0.0563879 0.0145016 0.146347 0.343644 0.0310795 0.0145512 -0.094514 0.0341837 0.0574504 -0.0336778 -0.18865 0.112066 -0.0585619 0.0414959 -0.134687 0.15338 -0.116428 -0.0462942 -0.0627075 0.104981 0.18788 -0.017717 -0.310417 0.0432684 -0.0487092 -0.0352695 0.0513658 0.00636188 0.196525 -0.377704 0.178117 0.0256975 0.393341 0.0128785 0.11684 -0.020585 0.00578544 -0.301168 0.0474253 0.275797 -0.227235 0.142884 -0.0601355 -0.309956 -0.0970462 -0.317226 -0.0995169 0.0937352 -0.210968 -0.34911 0.00414351 -0.0549766 0.0678791 
-0.108574 0.14877 -0.0570663 0.00859621 -0.207508 0.175097 -0.400855 -0.0652071 0.0269209 -0.0881569 0.12551 -0.0951956 -0.0542876 -0.165825 0.23714 -0.0605878 -0.259672 0.0419694 -0.388391 -0.232417 -0.0172734 0.231738 -0.135239 0.0444081 0.266343 0.0406061 0.214046 -0.0624429 -0.193311 -0.0976025 -0.0422707 0.211172 -0.204146 -0.242235 -0.117532 -0.00372046 -0.0553769 -0.451401 0.0173728 0.0681691 0.0203399 0.11695 -0.0354986 -0.0515582 -0.178117 -0.19921 0.00272747 0.0409452 0.0787531 0.0325908 -0.052564 -0.126646 0.078215 -0.47443 -0.230054 -0.242416 -0.181254 0.0932982 -0.0218551 -0.198487 -0.0363696 -0.103214 -0.268479 -0.239364 0.0417804 0.0669412 -0.0915113 -0.156655 -0.262019 -0.161085 0.0236341 -0.325252 -0.243777 -0.137972 -0.126907 -0.153759 -0.536664 0.118298 0.173726 0.184227 0.32733 0.122558 0.0974615 -0.0630598 0.0201719 0.145648 0.0651071 -0.288618 0.0987765 -0.173174 0.0619322 -0.12879 0.264205 -0.187009 -0.0558939 -0.0322093 0.078469 0.14127 0.124334 -0.252983 0.101611 -0.122382 0.0590307 0.200247 0.0622501 0.273202 -0.465991 0.0667741 -0.0264736 0.293874 0.0420341 0.296978 -0.0345601 -0.0466043 -0.308753 -0.107307 0.258737 -0.0798495 0.0441332 -0.0688056 -0.164603 0.0617344 -0.194136 -0.255486 0.134672 -0.165217 -0.329732 0.0351348 -0.0328551 -0.024757 
-0.122513 0.290366 0.0951919 0.0531196 -0.19868 0.0529057 -0.27704 0.0574865 -0.00326354 -0.184482 0.0701035 -0.18398 -0.0212961 -0.203436 0.238908 0.0484705 -0.217356 -0.112941 -0.503116 -0.131812 -0.218799 0.346039 -0.0503889 0.23789 0.0706108 -0.0149643 0.106749 0.0345027 -0.12222 -0.0920156 -0.200679 0.225182 -0.0985126 -0.370435 -0.0723829 -0.0875729 0.018907 -0.13995 0.0946543 0.13354 -0.00106025 0.0675775 0.000866625 0.0317125 -0.192444 -0.189127 0.0331681 0.141587 -0.210557 0.00589919 0.0496369 -0.166342 0.13436 -0.5378 -0.179142 -0.23224 -0.273164 0.0873865 0.0516393 -0.157993 -0.0856017 -0.165095 -0.380908 -0.176591 0.0438514 -0.0317751 -0.00516745 -0.0882651 -0.328399 -0.254215 -0.00670571 -0.234088 -0.254234 -0.237154 -0.108511 -0.154983 -0.651097 0.0293341 0.135527 -0.0994384 0.218442 0.198754 0.172628 -0.0567631 0.177174 0.133417 0.0165844 -0.260186 0.297948 -0.0942502 0.00228185 -0.0567235 0.330173 -0.0257852 -0.0496568 -0.124681 -0.103841 0.136608 -0.10494 -0.245394 0.0699066 -0.0611556 0.0389315 0.0415211 0.329214 0.175989 -0.354671 0.0793225 0.0761598 0.00710584 0.0756296 0.316048 -0.0477182 -0.0515548 -0.268212 -0.193584 0.132516 0.118162 -0.0717996 0.0384373 -0.156712 0.152617 -0.211363 -0.27268 0.114889 -0.284824 -0.189059 -0.125662 -0.0583573 -0.117038 
-0.277323 0.126316 0.187389 0.0158026 -0.410761 -0.031907 -0.419424 0.234378 0.0328538 -0.321427 0.00603278 -0.148696 0.0764218 -0.2402 0.0515094 0.175024 -0.216939 -0.0298285 -0.573245 -0.0544648 -0.0716399 0.20508 0.0894129 0.228976 0.198185 -0.0467506 0.247597 0.0491661 -0.0862116 -0.125447 -0.227375 0.323995 -0.144921 -0.427026 -0.0840479 -0.103896 -0.0568805 -0.0936494 0.0396291 0.220289 0.0957506 -0.167727 -0.15318 -0.0435538 -0.437096 -0.36704 -0.0314433 0.134273 -0.318026 -0.0359443 0.0746144 -0.129353 0.134419 -0.56656 -0.274153 -0.107358 -0.220109 -0.0896252 0.160551 -0.20757 0.0050217 -0.321218 -0.439195 -0.231422 -0.269244 -0.0128731 -0.230299 -0.11691 -0.378094 -0.184551 0.209196 -0.0986746 -0.178427 -0.227435 -0.0824593 -0.0449647 -0.518952 0.0712417 0.0364143 -0.444535 0.103016 0.0644295 0.161803 -0.114748 0.00261033 0.308543 -0.0796877 -0.0601121 0.279952 -0.147786 0.0877455 -0.13222 0.369897 0.160085 -0.152547 -0.215579 0.0131642 0.275513 -0.133048 -0.187602 0.089498 -0.0404934 -0.0778048 0.162529 0.40051 0.217384 -0.24619 0.0664622 0.00287852 -0.133632 0.0770736 0.304859 0.08206 -0.0731383 0.0851013 -0.33022 0.138951 0.162639 -0.195577 0.034054 -0.108447 0.174519 -0.183172 -0.393473 -0.0148218 -0.315135 -0.294761 -0.148399 -0.00699776 -0.231104 
-0.210449 -0.00512996 0.287331 0.147257 -0.427094 0.0883705 -0.139778 0.187486 -0.0599235 -0.361793 -0.135266 -0.101103 0.0831496 -0.394641 -0.0144111 0.288268 -0.185344 0.0038411 -0.532495 0.0172486 -0.0550094 0.275372 0.230831 0.0688792 0.152667 -0.161996 0.0219286 0.183635 -0.136402 -0.0850357 -0.2177 0.256828 -0.162398 -0.469563 -0.119063 -0.2093 -0.000989657 0.194584 -0.183246 0.332601 0.0999969 -0.158699 -0.158352 0.0258054 -0.401139 -0.354426 -0.0670488 0.222355 -0.634741 -0.0823385 0.0191435 0.00369776 0.240755 -0.365218 -0.201177 -0.173718 -0.299731 -0.12077 0.280527 -0.219358 0.116803 -0.367231 -0.356503 -0.24307 -0.252144 -0.0726663 -0.278211 -0.0295188 -0.313134 -0.108737 0.206999 -0.102796 -0.115596 -0.30428 -0.0715039 -0.143444 -0.378761 0.0376551 0.175999 -0.494805 0.0662844 -0.143396 0.134473 -0.165203 0.00501382 0.31822 -0.0931169 -0.0387188 0.23645 -0.102316 -0.00944374 -0.185574 0.40542 0.0574194 -0.222839 -0.264504 0.0912937 0.316885 -0.295688 -0.00133521 -0.00753039 -0.115318 -0.0197118 0.285231 0.362342 0.0506272 -0.280612 0.061045 -0.24518 -0.218114 -0.0746519 0.435908 0.205566 0.0125516 0.203353 -0.295325 0.0601327 0.398565 -0.142095 0.0774585 0.0122719 0.305548 -0.174404 -0.377531 -0.0237965 -0.492565 -0.220536 -0.283318 -0.132873 -0.291647 
-0.27112 -0.00025746 0.396085 0.00717349 -0.329795 0.155542 -0.197944 0.156637 -0.0881573 -0.22743 -0.00515572 -0.148066 0.199288 -0.398794 -0.0998807 0.234296 -0.19649 0.0957791 -0.483756 -0.0393177 -0.0430126 0.247783 0.297286 0.0908745 -0.0280516 -0.124946 0.0293133 0.132344 -0.155173 -0.014738 -0.187566 0.236912 -0.238545 -0.501177 -0.125863 -0.265233 -0.0167986 0.324998 -0.186234 0.351252 0.0894767 -0.116483 -0.0977044 0.0013149 -0.337139 -0.312869 -0.246194 0.232799 -0.772439 -0.213726 0.0818222 0.0994439 0.171991 -0.247488 -0.215668 -0.0848215 -0.269796 -0.175341 0.292612 -0.252051 -0.0523804 -0.353193 -0.2704 -0.209819 -0.361931 -0.0539847 -0.332494 -0.023605 -0.186393 0.00829118 0.149807 -0.168133 -0.136445 -0.349924 0.00263067 -0.129648 -0.314793 0.0991296 0.117124 -0.472765 0.1183 -0.0211003 -0.0160451 -0.0913784 -0.0464937 0.367746 -0.0483957 -0.144454 0.257489 -0.0932138 -0.0191826 -0.160591 0.346943 0.0594887 -0.507526 -0.184453 0.294216 0.175229 -0.22737 0.0657397 -0.176848 0.0202989 -0.0346223 0.243272 0.242799 -0.0346077 -0.359685 0.1513 -0.246315 -0.286656 0.0037469 0.346149 0.261504 0.149201 0.345788 -0.168087 0.129814 0.618764 -0.117368 -0.112589 -0.0542265 0.156171 -0.308569 -0.494403 0.0189222 -0.471907 -0.208751 -0.237106 -0.0415016 -0.289237 
-0.201084 -0.0726393 0.422422 -0.0457262 -0.321797 0.0153614 -0.214938 0.0546354 0.022191 -0.240104 -0.15309 -0.159091 0.15183 -0.400011 -0.1846 0.313069 0.0431588 0.0368923 -0.333528 -0.12943 -0.146451 0.188465 0.291278 0.0166965 -0.144333 0.0170145 0.194268 0.165227 -0.248535 0.0210947 -0.207484 0.154899 -0.0415227 -0.397787 -0.082921 -0.249088 0.157018 0.419584 -0.357459 0.404001 -0.0240423 -0.289014 -0.0304067 -0.033889 -0.245825 -0.264725 -0.318831 0.167871 -0.708205 -0.314481 0.074168 -0.0962398 0.271175 -0.134195 -0.166442 0.141884 -0.28499 -0.102433 0.1239 -0.221668 -0.0445017 -0.319124 -0.206694 -0.185103 -0.423023 -0.0355001 -0.286769 -0.056322 0.0670048 -0.0282928 0.148619 -0.212382 0.045644 -0.0987763 0.113463 -0.0125551 -0.24335 0.0624215 0.021954 -0.575775 0.020379 -0.0388986 0.0438106 0.0845587 -0.0704416 0.287865 -0.0404737 -0.00169121 0.411671 -0.237382 0.103344 -0.270478 0.37267 0.00320613 -0.547475 -0.164235 0.122684 0.156117 -0.123859 0.0746059 -0.341672 0.155993 -0.00980175 0.0262325 0.226034 -0.025135 -0.361343 0.0738447 -0.370509 -0.394036 -0.0639708 0.286 0.300694 0.119597 0.485522 -0.228733 -0.0611103 0.519274 -0.0520946 -0.161255 -0.000448372 0.0831568 -0.103678 -0.45372 0.0275489 -0.477603 0.0192071 -0.228597 -0.157791 -0.266746 
0.0306461 -0.096365 0.205252 0.070886 -0.269803 0.0698338 -0.252366 0.155042 0.105355 -0.39427 -0.271982 -0.122107 0.0486502 -0.348331 -0.431211 0.338997 0.0788746 -0.0836484 -0.176337 -0.120006 -0.32983 0.130187 0.120764 0.0449646 -0.222486 -0.00536725 0.263888 0.262104 -0.342616 0.136765 -0.125166 -0.00836441 -0.066713 -0.191386 -0.0864258 -0.376553 0.219635 0.349004 -0.41506 0.171649 -0.0485418 -0.26879 0.0345015 -0.1617 -0.332631 -0.275532 -0.423357 0.201352 -0.446122 -0.172773 -0.0998528 -0.107802 0.149529 -0.000499382 -0.119387 0.196176 -0.227768 -0.0902038 0.176806 -0.245778 -0.236978 -0.181039 -0.192393 -0.227936 -0.388555 -0.153986 -0.225003 -0.11903 0.162947 0.10714 -0.0183816 -0.331251 0.125539 -0.0117578 0.305874 0.026103 -0.320946 -0.0466934 0.00388335 -0.634511 0.105544 -0.118071 -0.026492 0.332418 -0.283247 0.450118 0.184861 0.152705 0.283082 -0.249707 0.13949 -0.0478847 0.472217 0.13853 -0.312333 0.0430418 -0.0590691 0.0738812 0.0803683 -0.0604046 -0.260792 0.335748 0.0101405 -0.0919377 0.307375 -0.0888099 -0.359665 0.136913 -0.42374 -0.305739 0.0808491 0.211024 0.420254 0.0185394 0.471186 -0.268632 -0.0882623 0.392195 0.00892147 -0.216447 -0.18938 0.00496134 0.0939176 -0.330843 0.169978 -0.398201 0.0537896 -0.0808736 -0.023746 -0.0855826 
